1089 100
的 -0.016228417 0.02540474 0.007338308 0.016198503 -0.004198937 -0.046981607 0.026647871 0.0618676 -0.03011697 -0.015653748 -0.0072528212 -0.03620137 -0.0061477553 0.020033468 0.0018000047 -0.016521279 0.0134146 -0.016306935 -0.013717485 -0.0633808 0.0301043 0.011614358 0.018849153 -0.0032590537 -0.0056393268 0.0052991444 -0.031807806 -0.009211752 -0.026047496 0.008250905 0.016363854 0.0011105151 0.027186874 -0.0182706 -0.014394192 0.033609975 0.0076378947 -0.018133488 -0.028639361 -0.04852463 -0.009449843 -0.015501621 -0.016261855 -0.0010781604 0.01593831 -0.007825662 -0.02239209 -0.002909009 0.015255481 0.026597066 0.0036757712 -0.014265868 -0.010633607 -0.0026485864 -0.0077308267 0.009057554 0.015240067 -0.005853509 -0.04181633 0.020453805 -0.0016523466 0.008760933 0.0068481755 -0.009851159 -0.04070648 0.02217902 0.017998248 0.033651713 -0.03663708 0.041480903 -0.011938835 0.018380288 0.022060819 -0.019494487 0.028436644 0.019660238 0.0119818 -3.7097576e-05 -0.030511187 -0.006003468 -0.013569129 0.0045096423 -0.022310454 0.04590077 -0.013267586 0.006940875 0.007179553 0.025349807 0.0282782 0.015334401 0.03975063 0.009333905 0.0032962812 0.004094351 0.047700603 0.025743293 0.0019787827 -0.03234788 0.014093902 -0.0042788247
结点 -0.017467165 0.017072173 0.0060639367 0.0098705245 0.010626153 -0.028221259 0.011897706 0.03570471 -0.016935857 -0.012707189 -0.008290277 -0.02771685 -0.006404369 0.014260419 0.0072400034 -0.0007072498 0.0123813115 -0.0020958509 -0.006518554 -0.030860545 0.014836958 -0.0010559048 0.0154933445 -0.012309472 0.00041690428 0.008067582 -0.021944113 -0.0035493565 -0.011726714 0.01351001 0.023421926 -0.0030894699 0.009615321 -0.011593288 -0.0028727313 0.02243347 0.007037912 -0.0006534431 -0.0061363396 -0.015020457 0.0078218775 -0.018550815 -0.0135694 0.0018476801 0.0055701514 0.0038828515 -0.0023164505 -0.00826599 0.0074133403 0.011682056 0.014543474 -0.019756434 -0.0039007457 0.0016967832 -0.009894737 0.015990851 0.015090117 0.00695305 -0.021613687 0.014166676 -0.008533993 0.008150994 0.0008725657 -0.0059755333 -0.018416643 0.016069168 0.01796216 0.009767778 -0.011510466 0.028122833 -0.013295951 -0.0029248113 0.018453013 0.0009560588 0.012180658 0.0035454102 -0.0042546443 -0.0024940958 -0.010421678 -0.0025616619 -0.016649546 0.005184754 -0.010274196 0.014761995 -0.0027600115 0.00047351362 0.00072582427 0.0068660006 0.019933619 -0.00016181538 0.022094676 0.0034891483 0.0018693411 -0.005321332 0.019083593 0.01454539 0.011606008 -0.016833115 -0.0026886188 -0.0016655148
是 -0.006502956 0.013411 -0.005853912 0.0020755187 0.009612591 -0.0092317425 0.0043852 0.024724977 -0.01877068 0.0009019604 -0.010764375 -0.017849918 0.008765452 0.0065436503 0.010250042 -0.0118420245 0.00948655 0.003068137 -0.010708909 -0.02758579 0.0028272495 -0.0016800747 0.0012567815 -0.010290442 0.0029182509 -0.0010205285 -0.00449122 -0.00047570796 -0.014346008 0.00857777 0.01579311 -0.0063446187 0.0004762025 -0.0066147987 -0.013968819 0.013170686 -0.0004989405 -0.0016171293 -0.010966896 -0.018958878 -0.005506229 -0.0069060023 -0.0038406772 0.008157848 0.010516109 0.0011801525 -0.0047639995 -0.008225246 -3.0118808e-05 0.00632055 0.0063936715 -0.010304429 -0.009969681 -0.009433278 -0.01615728 -0.00022699211 0.002457886 -0.004344711 -0.02229344 0.0009217502 0.0041646985 -9.999451e-05 0.013537166 0.00096195313 -0.02375961 0.01778794 0.015752627 0.017086485 -0.021393247 0.022306811 -0.0036502627 0.008965799 0.01402681 -0.0023421024 0.006821782 0.016363647 0.011664448 0.00420076 -0.014313676 0.0011183558 -0.0040986002 -0.007721748 -0.019925455 0.01602295 -0.0019132523 -0.0033596873 -0.0047321143 0.0054365965 0.021375056 0.0035579468 0.011443879 0.009183194 0.009197352 -0.0025569077 0.023691298 0.014084293 0.010249187 -0.009729905 0.013649078 -0.011681966
查找 -0.017753504 0.023927297 0.00093956204 0.002377542 0.0074279034 -0.026357526 0.012829143 0.036695283 -0.0075999503 -0.014722941 0.001332638 -0.015267489 0.0036235894 0.0010651787 0.012635152 -0.010416027 0.014560631 -0.015664231 -0.010698701 -0.023005933 0.014698893 0.0011860025 0.01616863 0.0070074643 -0.017070893 0.0075983363 -0.011737847 -0.0040805894 -0.0080993455 0.0068658832 0.0137651395 -0.003030527 0.0023588478 -0.00807865 -0.0032682233 0.028762583 0.009204625 -0.0128953 -0.025754519 -0.015043862 0.003029453 -0.0053530857 0.0019382803 -0.00040053262 0.016044224 -0.00095563894 -0.0052129263 -0.009771314 0.0026752327 0.0075691915 0.010994829 -0.009709078 -0.013093727 -0.011840828 -0.014757386 0.007141741 0.008318625 0.010004523 -0.015850103 0.0011842592 -0.0013199056 0.009722128 0.014100513 -0.0021883675 -0.017131258 0.005261775 0.009451268 0.023252403 -0.021108655 0.01207356 -0.0038795487 0.0013176906 0.011312944 0.004524339 0.011069187 0.005853723 -0.0030876128 0.007540939 -0.02118037 0.0037645474 -0.013164047 0.0072681415 -0.010771422 0.024614887 -0.0056274906 0.00042590784 0.0097117955 0.022581996 0.014811297 -0.004684547 0.013358415 0.0036795062 -0.00048543158 -0.0002885562 0.0312865 0.010767856 0.011581085 -0.021199316 0.0051775337 -0.0120745
和 -0.015178961 0.013449647 -0.006258704 0.0011824669 0.0063562538 -0.0138047505 0.010815293 0.028552435 -0.01668227 0.0012553511 -0.013683725 -0.012383292 -0.008835019 0.008412448 -0.0017522135 -0.011547438 0.0018782793 -0.0029273743 0.0036426138 -0.03170118 0.012162738 -0.0052250293 0.013920831 0.007513537 -0.008650462 0.005273662 -0.014960253 -0.0014407358 -0.017292824 0.006454834 0.01862317 0.003335068 0.009679939 -0.014734256 0.0028756084 0.011475486 -0.0030941044 -0.0022346664 -0.015066536 -0.02021903 0.0019364246 -0.016752904 -0.013281997 0.010950498 0.01354608 -0.011103501 -0.003731829 -0.00604964 0.0096436655 0.0011858614 0.009831696 -0.0048355376 0.007057802 -0.006438416 -0.009402626 -0.00082747015 -0.0042194114 -0.008886683 -0.019962631 -0.00080647384 0.0044375 -0.0016355838 0.00814829 -0.00011047535 -0.022823304 0.008719437 0.019378671 0.022893755 -0.021404792 0.02853234 -0.014229874 0.01093439 0.008393213 -0.0013271058 0.01505016 0.01639346 -0.0002537506 0.009564745 -0.0065778713 -0.008268962 -0.014574377 -0.006672412 -0.010550186 0.01631492 -0.010656573 -0.0053785387 0.008562586 0.01718986 0.0061312434 -0.00041255093 0.022419399 -0.0002736847 0.00527054 -0.0024043182 0.021854514 0.0020549078 0.011752441 -0.00790058 0.007533413 -0.0024287258
树 -0.015248122 0.01265284 3.9434148e-05 -0.006244761 -0.007309858 -0.01757339 0.012461129 0.025625037 -0.016676048 -0.012110426 -0.010910878 -0.016778525 -0.008070962 -0.004415222 7.203999e-05 -0.014543143 -0.0023392239 -0.01328864 -0.0041850116 -0.02386886 0.00018372998 0.0020774496 0.013481406 0.0057897265 -0.012175219 5.106183e-05 -0.009639598 -0.015894148 -0.0059075197 0.011473488 0.016083682 -0.00805729 0.0026811128 -0.012601682 -0.005145587 0.02378986 0.0058776215 -6.3264335e-05 -0.006502005 -0.021614311 0.00983532 -0.015627518 -0.010605302 -0.001148118 0.005701045 -0.006322449 -0.007168093 0.002402518 0.0038345077 0.005572958 0.0075676376 -0.01618495 0.0054309224 0.007103789 -0.016048322 0.00796394 0.014973394 -0.0075099394 -0.022315605 -0.00340623 0.008548139 0.0032972568 0.013492172 -0.009265738 -0.013114849 0.010674288 0.00804378 0.013805462 -0.021745171 0.0067781503 -0.0051502297 0.010463126 0.017941538 0.0017529326 0.009120826 0.015995553 -0.007661292 0.0035941813 -0.011387744 0.0046870415 0.0023624974 -0.0063098893 -0.0058979057 0.0063033006 -0.003776843 -0.006562241 -0.0044713644 0.021477006 0.010962283 0.0065096184 0.024511645 0.013024513 -0.008606624 -0.0015224327 0.025885675 0.01386339 0.0030487839 -0.01962222 0.008660404 -0.011424006
在 0.002079339 0.005132511 -0.000394766 0.003907642 0.0016982871 -0.013755079 0.013366528 0.019970872 -0.012574069 -0.0060381303 0.00057428255 -0.0114461295 -0.0011829522 0.014375199 -0.002332807 -0.0060670134 0.013060246 0.00019919162 -0.00026746196 -0.0291641 0.00955177 0.00049822836 0.013988524 -0.0006766185 -0.0027713778 0.0057650898 -0.01382468 -0.010317855 -0.0066100606 0.0023946043 0.015363016 0.009711574 0.006090161 -0.00060105213 -0.011143266 0.01472154 -0.0072049387 -0.013704218 -0.016810764 -0.025150063 0.0071919416 -0.013357985 0.005590997 -0.006304958 0.009076356 0.0065109655 -0.013430421 -0.014847776 -0.00044143363 0.004133596 0.0043592155 -0.015436022 -0.011208846 0.0016007115 -0.01433483 -0.0043878206 0.0020685832 -0.008531426 -0.021035528 -0.0042992737 -0.00040977597 -0.0014204481 0.010645944 0.00070885057 -0.01819503 0.013358153 0.0009772519 0.0056982073 -0.020084705 0.01034959 -0.008229328 0.010339802 0.00587742 0.000959857 0.015955932 -0.0003055925 0.0064941575 0.0060927966 -0.013344329 0.007437387 0.0011712996 -0.005350193 -0.017196639 0.01708271 -0.0042952243 -0.004209926 0.009738183 0.006159271 0.0052504283 0.0032829691 0.011404283 0.0039076833 -0.0039105373 0.0011581532 0.013238426 0.009064955 0.011869401 -0.015250721 0.0033659297 0.0014057264
元素 0.0025167533 0.0046572094 0.009734566 0.01094695 -0.0024969974 -0.013867439 0.011458347 0.01473913 -0.014430048 -0.010882375 -0.0058445726 -0.012933515 0.0043789977 0.0021730936 0.0022415377 -0.0024773024 0.008797784 -0.0061457753 -0.008529484 -0.02876984 0.008221124 0.009372952 0.0056532645 -0.010598777 -0.012642887 0.0096566295 -0.015010571 0.0013465437 -0.013306114 0.012405337 0.002186898 0.0042853723 0.005503258 -0.010164431 -0.007861572 0.011464578 -0.005266159 -0.005644784 -0.01781618 -0.012654946 0.009156987 -0.009875093 -0.0035878415 0.0042758263 0.014469703 -0.008984278 -0.012228123 -0.0077263075 0.0129055325 0.006997784 -0.004388657 -0.007890638 0.0069899973 -0.00887957 -0.011553396 0.01425567 -0.005083139 0.003687018 -0.0127549 0.010700394 0.00842154 5.8071622e-05 7.620477e-05 0.008212326 -0.011909084 0.013433846 -0.0026607611 0.019290091 -0.013691739 0.008197715 -0.0034647298 0.0026280158 0.013049149 -0.0057856957 0.00421939 0.008958442 0.0103702815 -0.00483169 -0.0072307135 -0.007267906 -0.011574925 1.7058115e-05 -0.018800847 0.016523128 -0.00094374706 -0.00064647774 0.0050619678 0.020782225 0.01964691 0.0012235565 0.015411839 -0.0006360713 -0.008494424 0.0075691356 0.011543353 0.006908233 0.0021425893 -0.013314656 0.008817103 -0.007992357
一个 -0.015079281 0.017786272 0.0048887613 0.011786961 0.008533404 -0.0111231245 0.016846465 0.014515516 -0.015901435 -7.469704e-05 -0.0014552027 -0.018356835 0.009163427 0.0011983654 0.012135363 -0.0041339016 -0.0029495186 -0.007925483 -0.009277129 -0.021816729 0.009595537 0.011817018 0.013518778 -0.0079637375 -0.0007238005 0.005485988 -0.013586925 -0.014265911 -0.0055483 -0.003916349 0.014863863 -0.0050082547 0.011778793 0.006070812 -0.0044473456 0.016936157 -0.0017361371 0.00328023 -0.005917095 -0.024804363 -0.002565024 -0.0034567935 -0.002685338 5.3662854e-05 0.004467284 -0.004211458 -0.004828006 -7.706873e-05 -0.00047195813 0.0024231728 0.0043362575 -0.0064381897 -0.0024662726 -0.00598976 -0.001543228 0.0027389692 0.0060552442 0.0011214307 -0.007458748 -0.002923128 -0.007153503 -0.0013702663 0.013472862 -0.0022225743 -0.023693962 0.0066069155 0.0021685353 0.015916668 -0.021369506 0.01674735 -0.015732683 0.004847732 0.014392102 0.0034792484 0.0009867975 0.0006906904 -0.0051182406 -0.007600443 -0.01934724 -0.0012921836 -0.005367842 -0.006537783 -0.002751878 0.015107758 0.003317639 0.0035006346 0.0009036067 0.0034517609 0.008722759 0.0074132616 0.008435201 0.0045138 0.002795891 -0.000100477795 0.023888567 0.016199902 0.006157117 -0.0016309149 0.010594734 -0.009629399
数据 -0.010075016 0.000901064 -0.0072662355 0.010758881 -0.0002339234 -0.018951878 0.0017883694 0.021491613 -0.010341988 -0.007374925 -0.0025302514 -0.013265688 -0.001961782 0.005024019 -0.0007157123 0.0044430913 0.0073366235 -0.015072046 0.0046288637 -0.023214906 0.0073498585 0.006522891 -0.001405629 -0.0035135322 0.0048406557 -0.0015513003 -0.017372428 0.0048953127 -0.0076683415 -0.0012038966 0.015722677 0.0051314645 0.010150915 0.0062703304 -0.0122813005 0.015870249 0.001917557 0.00020529896 -0.0068975114 -0.008381265 0.0044372166 -4.8666738e-05 -0.005325785 -0.0041399137 0.004154741 7.725812e-05 -0.008076973 0.0023735946 0.0074158716 0.013224315 0.0062533747 0.0028359557 -0.003578595 0.00704342 -0.0010386712 -0.004093661 -0.0005475849 -0.0022625732 -0.0061810133 0.0027331472 -0.0027599116 0.010275458 0.01278327 -0.0021920986 -0.017176 0.0012088515 0.00072759035 -0.0014089578 -0.008761332 0.0073739104 -0.002738655 0.008416298 0.0027622234 -0.012661032 0.00885584 -0.00097526633 0.004135823 -0.0036549752 -0.0013868201 0.0012505465 -0.00041548916 -0.0018376926 -0.009904264 0.019452339 -0.0006804116 -0.004455407 -0.00742189 0.010366437 0.01565325 0.007971471 0.0020084819 0.011403918 0.003801559 0.008935101 0.02120512 -0.000998023 -0.0060825297 -0.0017940447 0.013282654 0.00048486132
为 -0.00046284142 0.010786671 0.008989569 -0.0058083576 -0.005362166 -0.026061993 0.0058591077 0.031053891 -0.016279772 -0.014501038 0.0014034295 -0.0208761 0.008060203 0.0011964228 0.007243899 -0.0021767835 0.0071791913 -0.0114359595 0.00042540152 -0.034670193 0.00882732 0.000650242 0.013145052 -0.0058218245 -0.012589307 0.008781666 -0.01574099 -0.01054497 -0.0021414277 0.0096723875 0.0079215 0.0019742274 0.017658893 0.0026712145 0.00049077306 0.021730244 0.002470195 -0.0077149426 -0.02077027 -0.021905703 -0.0016090507 -0.010661506 -0.009937456 0.009429593 0.0010294766 -0.011051942 -0.009807287 -0.0074648643 -0.0024691445 0.009376988 0.00046002562 -0.010538585 -0.010406778 4.0950727e-05 -0.0051145633 0.0066105644 -9.604353e-05 -0.001324325 -0.011827257 0.009286109 -0.009221573 0.0009352981 0.007701337 0.0011079833 -0.029049248 0.0143171605 0.00064196874 0.006163295 -0.012982581 0.015697705 -0.0053347736 0.0137827005 0.008191801 0.0041873744 0.013798571 0.01917186 0.00843773 -0.0087873535 -0.016787019 0.007823822 -0.00064464327 0.010024915 -0.0066317976 0.026984835 -0.013513887 0.006767381 -0.0049408255 0.018322252 0.021658262 0.009085149 0.02669768 0.006091498 -0.0015592034 0.007575319 0.013153135 0.010254206 0.014842625 -0.017852588 0.010294558 -0.013835827
中 0.00549558 0.015349689 0.001837613 0.0074929204 0.0028974093 -0.017890941 0.00445829 0.021850165 -0.011902593 -0.007884583 0.00086651597 -0.007203223 -0.002148063 0.0006312682 0.008015537 -0.009442017 -0.0005719434 -0.011392176 -0.0057500326 -0.02390963 0.0023724295 -0.006216022 0.0051395856 -0.010060166 -0.013277771 -0.0053496296 -0.015758898 0.0025881943 -0.0015038227 0.0037114061 0.0040493966 -0.006529595 0.005997448 -0.002340107 -0.0036160888 0.011150297 0.0004802022 -0.0031654558 -0.01681857 -0.018603168 -0.008332631 -0.0075002457 -0.00049535045 0.008498504 0.0025946184 -0.004613699 0.0055409754 -0.0037084944 0.00048514322 0.013830183 0.0061425893 -0.010891551 0.004416947 0.0036198806 -0.012153632 0.0034141995 0.003793692 0.0055869594 -0.012901969 0.00071078475 0.0018272635 0.003348316 0.0045932694 -0.0029532204 -0.017650742 0.013210008 0.013015683 0.016448457 -0.018646225 0.013802776 -0.008854312 0.012577244 0.0097969575 0.0015953276 0.009389638 0.012348122 -0.00414524 0.008139324 -0.010681046 -0.0038195401 -0.005767484 0.010369574 -0.015064752 0.008913897 0.0046206918 0.0012590503 -0.0063236784 0.0022514926 0.018163601 0.009022955 0.016109072 -0.0006774808 -0.0097109135 0.005020819 0.018116178 0.00073177303 -0.0048828027 -0.010282566 -0.0012661396 -0.0057080938
存储 -0.0073280483 0.0030302412 0.009955374 -0.0069243754 0.006379835 -0.00784023 0.0054214112 0.026499253 0.0015162769 -0.0096134925 -0.010923056 -0.0180712 -0.008704995 0.0011122824 -0.0035446251 -0.013238898 0.0041351877 -0.0025799489 0.0046859137 -0.020851756 0.0029954251 0.0034602256 0.0043233205 0.007279869 -0.0037664254 0.010381859 -0.018865168 0.0037550705 -0.0077737593 0.012821991 0.00015776086 0.0025402557 0.0071469527 -0.003481566 -0.009413317 0.0021008095 -0.007744866 -0.0120461825 -0.0075255847 -0.013754737 -0.0012322431 0.000233561 -0.004829548 -0.00016285125 -0.00395047 -0.01286247 0.0043131476 -0.010296093 -0.003082449 0.011099231 0.010620054 -0.013040839 -0.0013860192 -0.0072503434 -0.0034759496 -1.364846e-06 -0.00012988964 0.0021151174 -0.0035654288 0.010612341 -0.010036629 -0.0028830606 0.011676472 0.0010875606 -0.017197551 0.0068874885 0.016240958 0.008023174 -0.021030221 0.015020536 0.0005569675 0.009327717 0.0118959695 -0.008918588 0.0072735646 0.006329161 0.0063843154 -0.008091991 -0.017879503 0.0011564691 -0.013434368 0.006336218 -0.009699606 0.022785839 -0.007662313 0.00092598575 0.007876129 0.0061660423 0.005142999 0.004343719 0.015125972 0.00016600711 0.006343988 -0.006363018 0.015675843 0.0074292547 0.012218994 -0.002218599 0.0112322 0.0048092613
结构 -0.015780335 0.01890497 -0.0072122454 8.0916354e-05 -0.002799733 -0.020654604 -0.0005726686 0.012463469 -0.013957398 -0.005991925 -0.010660931 -0.006966739 -0.010609509 -0.00034276547 0.012073346 0.0014140375 0.01178393 -0.0020645615 -0.0015440234 -0.026740458 0.014561183 0.0048894687 0.012195052 0.0051193647 0.0035766 0.011938255 -0.021906815 -0.012067913 -0.0059153256 0.010870826 0.016565617 0.006337022 0.014926616 -0.009361584 0.0019510193 0.009035468 -0.009403507 0.0044556633 -0.009428756 -0.019235054 -0.0024783814 -0.011918389 0.0017191798 0.0059160856 0.0030659575 -0.010459209 -0.009200396 -0.0051673646 0.010025036 0.004276525 0.0045401994 -0.006095633 -0.0098562725 0.0009788995 -0.0075090593 0.007628216 0.009091281 -0.001269387 -0.017271936 0.01234832 0.004806277 0.009842663 0.009077649 0.007963526 -0.0077131754 0.006210756 0.016273959 0.015488968 -0.007717617 0.013338369 -0.008758317 -0.0009173152 0.00034818597 -0.00080827595 0.01804605 0.016116204 -0.0001502882 0.0062477356 -0.007038909 -0.0033689092 -0.003037829 -0.0045555015 -0.0023726602 0.020402491 0.0006603021 0.006080114 0.008886459 0.01921782 0.011019213 -0.0039199786 0.0227772 0.010732087 0.0015373674 0.00040441743 0.008421326 0.0037105985 0.012756935 -0.012590382 -0.0014593267 0.0061197258
则 0.001244025 0.019183561 0.0018710416 -0.005785471 0.010750306 -0.020049643 0.013645997 0.026259271 -0.0003947572 -0.014684402 0.0035042863 -0.023567377 -0.0077002873 -0.003404749 -0.00246172 0.0015330645 0.013188112 -0.010424623 0.0017485558 -0.025275692 0.017279752 0.008752644 0.005040849 -0.005288373 -0.0122167375 0.008292469 -0.011217272 -0.008406676 0.00017291406 0.0006201306 0.00057042297 -0.0016685274 0.007516651 -0.011234563 -0.010687145 0.00571228 0.009377921 0.0023119887 -0.011958521 -0.010442772 0.007704535 -0.00895557 0.0036221414 0.00502873 0.011284969 0.004272117 -0.010751385 -0.007387127 0.0051374286 0.011826909 0.008465295 -0.0025558104 0.0019093837 -0.010064455 -0.009594234 -0.0018746881 0.014658752 0.0057956795 -0.015360122 0.008516746 -0.007818891 -0.0029654696 0.007771668 0.005925018 -0.012001643 0.01416905 0.005641437 0.0076916814 -0.013190444 0.012777121 -0.012683037 -0.004127283 0.016244369 -0.0053633437 0.00815831 -0.00016381493 0.011258219 0.0011909078 -0.009693853 0.0036890726 -0.0127728805 0.002419511 -0.008276725 0.007188021 0.0017524906 0.004756864 0.008123148 0.017616916 0.009711656 -0.003739726 0.02279589 0.0057303235 0.0054217153 0.008200583 0.017649168 0.0024726922 0.004394537 -0.0017481479 -0.0009646494 0.004985579
称为 -0.012689991 0.012722517 0.003102473 0.009901591 -0.0029982368 -0.018117083 0.0006802197 0.021849785 -0.012988907 0.0040584113 -0.009132929 -0.021582972 -0.0055995663 0.010667906 -0.004062903 -0.010231915 -0.003997018 3.5893703e-05 0.0016914208 -0.01571945 0.0043902243 0.008441004 -0.002034048 -0.0038148703 -0.009965723 0.0022448292 -0.013060496 0.0037051667 -0.0064302958 -0.004721041 0.002943191 -0.0061381427 0.009215131 0.0058838846 -0.010135668 0.020280622 0.008448767 -0.011534324 -0.018761348 -0.005382266 0.008382185 -0.011758243 -0.009276055 0.008946704 0.0089969495 0.005465709 -0.012808037 -0.014023549 0.0053840987 -0.0034388113 -0.0006610408 -0.009880333 0.007884759 0.0073758927 -0.008465891 0.010469645 0.012275876 -0.0018321181 -0.0032904206 0.011067691 0.0018802226 -0.0010445222 -0.001056084 -0.0035019924 -0.0057586245 0.0004899823 0.003603165 0.018844536 -0.00803914 0.019575112 -0.013955183 0.0026033286 0.014076626 -0.008283848 0.01563727 0.015968805 0.0014044554 -0.0020899114 -0.010045198 -0.004954034 -0.012926209 -0.000963696 -0.012155663 0.018104605 -0.009570537 0.0073956638 -0.0066624046 0.0026272049 0.019368771 0.012053042 0.009480498 0.006524297 -0.005670425 -0.007337503 0.007785303 0.014198685 0.0097683715 0.00084132794 0.011462251 0.003050714
链表 -0.0028395688 -0.0033821363 0.005083831 0.001754198 0.007894584 -0.008698063 0.0023171208 0.022297597 -0.005441194 -0.0029345094 -0.008692524 -0.017953176 -0.008231983 0.012412753 -0.0070539876 0.005346473 -0.0066585736 -0.004482128 -0.0033198362 -0.023519231 0.015181913 0.008958856 0.006581108 0.0037290414 -0.0030415196 0.01224529 -0.0012884039 -0.01352788 -0.009129533 0.0019613793 0.009736076 -0.003717563 0.0061606085 -0.010505473 -0.00049730553 0.01420285 0.0047929944 -0.0063393395 -0.01634578 -0.020790612 -0.0005115438 -0.013110637 -0.008798679 0.006934824 0.011268415 0.00014562381 -0.011836672 -0.009455217 0.0109550515 0.008353247 -0.0017799996 -0.012204081 -0.0010304444 0.0023818992 -0.002302541 0.0066315574 -0.003031293 -0.009619143 -0.017136645 0.0035052302 0.0049391533 0.0068144244 0.0050191227 0.004764456 -0.010839116 0.009407209 -0.004102925 0.015293906 -0.0031186948 0.015685175 0.002482909 0.01117284 0.0068790973 -0.004475646 0.0067450656 -0.0041169478 0.009994119 -0.006254325 0.0008144913 -0.0036185153 -0.0027676458 -0.008616079 -0.017092176 0.0023741862 -0.0097144665 0.0018789136 -0.0070422976 0.002935598 0.0031904795 -0.0020724188 0.017402854 0.007320049 0.008565854 0.008161069 0.0047159675 0.013124993 -0.006613825 -0.009220244 -0.004343643 0.001318581
有 -0.003513243 0.01539673 0.0036938011 -0.0044563725 0.00959424 -0.019349128 0.01653584 0.020978842 -0.0127420295 -0.008872451 -0.009285423 -0.018473597 0.008861699 0.0016047583 0.009855449 -0.015005205 0.0052640727 -0.007125541 0.0057583572 -0.027695272 0.015389398 -0.0026905811 -0.001980245 -0.006881782 -0.0072515695 -0.00027981357 -0.0136901345 -0.012316518 -0.005429419 0.0038351323 0.0064291004 0.004621769 -0.0012393508 -0.0069030626 0.00090346654 0.020623723 -0.009919078 0.003172114 -0.0041130437 -0.019311734 0.008640053 -0.016129667 0.0045277923 0.00715808 0.00624674 -0.008038064 -0.009107452 -0.007497083 0.0054408773 0.0077915327 0.011479269 0.0035989364 0.0067641977 -0.005219408 0.004569943 0.0040433705 0.008457458 0.0029510874 -0.013345283 0.008128823 -0.0057794047 -0.0026233138 -0.0036973835 0.001354276 -0.007279206 0.007442221 0.0072076633 0.012663576 -0.0031514214 0.0051798094 -0.003711877 -0.003837283 0.011943531 0.005891559 0.015962174 0.01284856 0.009588456 0.006812523 -0.0027783033 0.009444369 -0.009334682 0.010539619 -0.0042024134 0.010949773 0.0058639497 0.007034721 0.010067024 0.013097944 0.020861007 0.0039764214 0.0223251 0.0070076818 0.006600043 -0.0022090452 0.020224331 0.014423705 0.0014659609 -0.010808385 0.008300004 -0.010906724
指针 0.005655151 -0.0031603402 -0.0061828257 0.004915943 0.008205094 -0.016072234 0.007858041 0.024015289 -0.013658493 -0.009348863 -0.009135486 -0.013304407 0.0015086561 0.013387194 0.008549004 -0.003294693 0.005443788 0.004120775 0.008164472 -0.00871703 0.012855554 -0.0056575104 -0.00034142597 -0.006978269 0.0032961746 0.0005692656 -0.017471267 0.004068487 0.0037751344 -0.00024555752 0.015971716 -0.00020289212 0.0011035586 -0.0031109524 -0.0028049871 0.00603955 0.002942363 0.0026319285 -0.0006995953 -0.020667398 -0.0024342309 -0.011390109 0.005474061 0.007230565 -0.00044463656 0.00029891264 -0.010383872 -0.0030751727 0.012855899 0.002008094 -0.0019083018 -0.012591259 -0.004548902 -0.0021838504 -0.0012088437 0.013569746 -0.00035510564 0.0025074116 -0.0003975053 0.0042859823 0.0012609976 0.01192707 0.012339361 0.0074195573 -0.016962335 0.01553318 0.011195463 0.016885214 -0.011132858 0.014145356 0.0017912914 -0.001281082 0.013235782 -0.00041069783 0.015697744 0.0022886402 -0.0018190943 0.006655613 -0.016603239 -0.0066791987 -0.010185828 -0.00028977162 -0.00982047 0.017493136 0.007494929 0.0004570938 0.0014268336 0.0100702 0.0063403933 -0.005779455 0.017933901 -0.0020447038 0.004951471 0.01031761 0.0136655895 0.009334255 0.0071328077 -0.009369058 0.007043623 -0.0026750064
二叉树 -0.00022293242 0.014736789 0.0028906208 0.00859056 -0.0071633356 -0.007933281 0.016880982 0.015013836 -0.007774402 -0.009770113 -0.0042887195 -0.009931892 0.0075788875 0.0051078945 0.00501386 -0.0039133527 0.01225524 -0.012434516 -0.007976947 -0.023327382 0.0063022766 0.0075541027 -0.0036925878 -0.0044458522 -0.012533713 0.008489459 -0.014050708 -0.014541469 -0.0025348584 0.013554075 0.005592929 -0.0049045924 0.009922588 -0.004568297 -0.01442875 0.021301672 -0.007364259 -0.00942837 -0.013079539 -0.021654956 0.0015360744 0.00213838 0.0020015715 0.009607952 0.005083268 -0.002306793 -0.008026972 -0.01301517 0.007287884 0.0088448115 -0.005036935 -0.011690081 -0.01227327 -0.0064982846 -0.0017897406 0.013579454 0.008313174 0.0025951997 -0.005250548 0.003133644 -0.0017516536 -0.005535672 0.0037498912 -0.0033962524 -0.014358284 0.0143994065 -0.00011974992 0.0059640296 -0.019089531 0.010902748 -0.010051686 0.005717197 0.011910658 -0.008914724 0.0041181166 0.008192461 0.007131077 0.0054971823 -0.012961746 -0.0030885353 -0.010552888 0.00035148757 -0.00816117 0.015614737 0.00456674 -0.0009077916 0.00014119901 0.0054441052 0.010510693 -0.0043514734 0.012799369 0.0047315257 -0.008803093 0.010437804 0.0043919953 -0.0024466496 -0.004707885 -0.0015704017 0.010111927 0.00557297
顶点 -0.0021026358 0.008290958 -0.0015585304 0.01158649 0.004794469 -0.0077244123 0.0052507836 0.017082201 -0.0009981843 -0.004552453 -0.00092524674 -0.0114676645 0.004710226 0.00743315 0.0045000887 -0.009777008 -0.002466614 -0.0006147535 -0.007900766 -0.016664676 0.0062539848 0.0055089532 -0.0051276316 0.007725418 -0.005116243 -0.0024749157 -0.0052970173 -0.00610204 -0.013632668 -0.0005699316 0.006834016 -0.008558446 0.0068789045 -0.0007558737 -0.006983517 0.013552411 0.0020714793 0.006824447 -0.0071592242 -0.011458407 0.0028618437 -0.008193861 -0.011204342 0.00989556 0.002395683 -0.011780809 -0.010905049 -0.007631418 0.007575681 0.010438775 0.0101979915 -0.012936076 -0.00075152336 -0.003545662 -0.010311266 0.011433484 0.0073546856 -0.0028265584 -0.019318033 -0.001479168 -0.0010802737 0.010724494 0.009636609 -0.009043068 -0.022006918 0.013080507 0.0029945506 0.0047175735 -0.004142939 0.0055998727 -0.0006690092 0.0029563475 0.00061315164 -0.0034401114 0.01382878 0.015356451 0.0037859774 0.0051818546 -0.013482998 -0.00018679253 -0.009100765 0.0021930796 -0.010103483 0.008388402 -0.009573692 0.011692058 0.002884233 0.0069206823 0.005673792 0.010407805 0.0049840664 0.005893954 0.0006547026 0.009592149 0.018730797 0.0038212738 0.0056028827 -0.00943875 -0.005398444 -0.006152009
顺序 -0.0044025998 0.015614258 0.010816701 0.011785104 -0.0062949215 -0.007516402 0.0007065775 0.01765303 -0.008211666 0.0023602848 -0.0007459307 -0.0074414643 0.009000984 0.0048405095 -0.003803407 -0.010944289 0.010380669 -0.011591701 -0.004245292 -0.014613255 0.0058310404 -0.0039049257 0.0021487393 -0.00041111378 -0.002225108 0.009447908 -0.016211376 -0.0018395094 0.0011516265 0.0062245405 0.013633985 -0.00408119 0.012270976 -0.011549718 -0.0006002658 0.0031558163 -0.0025104831 -0.013825955 -0.012146326 -0.020270249 -0.0039061 -0.0056145024 0.0004092597 -0.0004389031 -0.002686476 -0.008643156 -0.0044837724 -0.008697575 -0.0063379514 0.0056127156 0.011060687 -6.834868e-05 -0.012447989 0.0021838266 -0.011620434 -0.0047552576 0.0040613418 -6.603281e-05 -0.02047988 -0.0026702322 -0.0030816242 0.009897827 -0.0038389124 0.0069277 -0.013779175 0.007895354 0.016693963 0.014490377 -0.015247864 0.017872747 -0.0024778256 0.009547413 0.007905809 -0.008024022 0.009309819 0.0010966327 0.0033756697 0.004885879 -0.004371367 0.010458664 -0.012790682 -0.0046576364 -0.0030523986 0.014905501 -0.009194231 0.0025901804 0.0030412083 0.008403431 0.005864725 0.008288325 0.023097387 -0.0045722807 -4.6018384e-05 -0.0011668059 0.0064309323 0.005736121 -0.0016662242 0.0004853201 -0.0013470397 -7.31661e-05
表示 -0.004928224 0.011990522 0.0027118956 0.012446595 0.002320395 -0.017578447 0.0045672194 0.018022347 -0.010834063 -0.011970567 -0.010101128 -0.01680051 0.0054246145 0.007804085 0.010364463 0.0022597958 -0.0034223718 -0.0024270746 0.0072592315 -0.013980467 0.009886048 0.008082424 -0.0052047623 0.008406222 0.003404144 0.011215574 -0.017643351 0.0020316262 0.0013609317 0.0022447784 0.000772518 0.006159187 -0.0013238171 -0.0086955475 2.6105196e-05 0.018695625 0.008561796 -0.008035469 -0.017957998 -0.0029726957 0.0062748115 -0.009803654 -0.010690947 -0.0036349888 0.0005172836 -0.0056551564 -0.00340583 -0.0040046326 0.00016538576 -0.00062199496 0.013090018 -0.010179147 -0.009298718 0.0066589746 -0.0023237774 0.012465632 -0.0012407037 -0.006966986 -0.010285838 0.0023099275 -0.009606511 0.0012558693 0.00652466 0.0059105423 -0.004505287 0.009005769 0.0014420752 0.006621488 -0.014299617 0.017533666 -0.011596276 0.0051167198 0.0055571 -0.009022486 -0.00025178652 0.011627304 -0.007034196 -0.00035430872 -0.0054244944 0.008577621 -0.011301104 0.003814377 0.0015556252 0.0045244354 -0.005551239 0.006542725 0.0057878373 0.010748947 0.017468493 0.0036506995 0.013028323 0.00096610753 -0.008414077 0.004565939 0.013204645 -0.0028066877 0.0024007398 -0.0074481377 0.0037886605 0.005803908
记录 -0.008151455 0.0029248684 0.008038956 -0.0049837804 -0.006934658 -0.015829543 -0.001615398 0.019234734 -0.007187824 -0.0063889017 -0.011944253 -0.012628465 -0.001632162 0.008403379 0.010478558 0.00053619687 0.012005648 -0.015066108 0.0077895187 -0.021931108 0.017315516 0.0048365234 0.0075215017 -0.011375935 -0.01408393 0.012213394 -0.013865044 -0.002378828 -0.00021248542 0.003914629 0.018032942 -0.0004127026 -0.0035496182 -0.011004394 -0.0055991677 0.00406785 0.0073856846 -0.00042402244 -0.01922607 -0.0072838436 0.008987099 -0.0014233567 0.004549058 -0.008136335 0.006010227 -0.0123083 -0.008383364 -0.0043592243 0.0035048944 0.0074349535 0.0075743725 -0.0043948917 0.003079246 0.00651295 -0.011408549 0.01275695 0.009717981 0.010031019 -0.008961202 0.00056732993 -0.0034967465 0.0021671266 0.0024121702 0.009408193 -0.012669025 0.010949237 0.010085382 0.00040006152 -0.0052582114 0.022249855 -0.007926834 0.0059319166 0.0017628577 -0.009730334 0.016881963 0.0038227574 0.008550147 0.0019292653 -0.011865586 0.0038573851 -0.009008918 -0.001124638 -0.008791566 0.018138282 -0.003983456 0.0026008806 -0.007903896 0.020523569 0.0025829498 0.009943772 0.017686086 -0.0037282954 -0.0053873262 -0.006486888 0.008058941 0.014141211 0.013110147 -0.006639909 0.0051152376 0.005768463
线性表 -0.0089780465 0.004965956 0.0035789425 -0.004489802 -0.008396735 -0.0194249 0.01387075 0.018675577 -0.010859924 -0.011481173 -0.0022737605 -0.0056772777 -0.0017950877 0.004444392 -0.0026647062 0.001276326 0.004210013 0.0047318796 -0.011290324 -0.018623691 -0.0033786611 0.0013420912 -0.0047678766 0.0038270704 -0.009499314 -0.0037209697 -0.0027715648 -0.011556419 -0.0032437332 -0.004458131 0.015930211 0.00924937 0.006255393 0.003250755 0.0014830624 0.0027998849 0.0097236 -0.01282467 0.00077393476 -0.008003616 -0.0031150025 -0.008588743 0.0072202245 -0.0047902386 0.0120935505 -0.0082194805 0.004644056 -0.003619215 0.010547467 0.001189735 0.008970689 0.0040670903 0.000910808 0.00051119016 0.00091046566 0.011361462 0.011275109 0.008518411 -0.0024247419 0.010713333 0.008870121 0.0021562418 0.001959962 0.0012013896 -0.009910738 0.00577297 -0.0038504258 -0.002510712 -0.010920967 0.018907256 -0.008154263 -0.004661881 0.010898951 -0.0014141732 0.007995089 0.008366584 0.004871889 0.0058324505 -0.005642414 0.0014134406 0.005771033 0.0032197575 -0.011540476 0.01615864 0.0035802156 0.004122823 -0.0028955692 0.010856201 0.0141778365 0.0093995705 0.010335199 -0.0063003693 0.00029663809 0.001514976 0.013426586 -0.004378202 0.012465626 -0.013183649 0.009058465 -0.011823336
关键字 0.0035995713 0.017107155 0.0021256197 -0.0009218522 0.0016762511 -0.014425963 0.000709892 0.02531248 -0.007016796 -0.0006908148 -0.012765939 -0.004603643 -0.00020041059 0.005164694 -0.00650042 -0.0015733867 0.010213767 0.0010151747 -0.0085405195 -0.028432008 0.0033171535 0.0023326864 -0.003939805 -0.010087234 -0.006833497 0.004271972 -0.021195741 -0.009377129 -0.0064102877 0.011453489 0.010760282 6.2829255e-05 -0.0003961923 -0.010799433 -0.005582096 0.02101404 0.005415997 -0.005495647 -0.009746463 -0.026279386 -0.0012573391 -0.012477307 0.0032974146 -0.0010873887 0.0010031618 -0.012515823 -0.006791368 -0.012093072 0.002034656 0.0023944648 0.002271454 -0.010449143 -0.010348632 -0.002504407 -0.0045273765 0.0010253937 -0.0036674656 -0.0036958698 -0.023335043 0.0032797172 0.005846257 0.00039220744 0.007266735 0.0038208 -0.0061166347 0.012926532 0.016626878 0.0003037379 -0.020714456 0.007872682 -0.014350121 -0.0046378556 0.0005897614 -0.0066913064 0.010606914 0.004328202 -0.006984105 0.005364218 -0.009439041 0.0055182874 0.002262062 0.008546909 -0.011253459 0.017817926 -0.008037515 0.0042470125 0.0047155246 0.021171102 0.008774348 0.006061177 0.008686661 0.0011889851 0.007935931 -0.0027625884 0.012911688 -0.001810363 -0.0061177756 -0.00046272794 -0.0010400405 0.0009021019
算法 -0.011742855 0.0048291073 -0.007495475 0.0098080505 0.0075828293 -0.0061978945 0.01437359 0.014813689 -0.016838389 0.005717315 -0.00938978 -0.002271967 0.0052509354 0.0022903674 -0.0057768337 -0.005635607 0.009267527 -0.012385016 8.363004e-07 -0.023825109 0.015880356 -0.0008289317 0.013112755 -0.0070440285 -0.013427502 -0.006065238 -0.013201343 0.00052156847 -0.005580212 0.01292443 0.010305175 0.004580167 0.008276163 0.0053073633 -0.0060785846 0.017985137 -0.009703153 -0.00045916924 -0.009305327 -0.0121643245 0.006981647 -0.008709592 -0.004445348 0.0012727685 0.0040858556 -0.0059233024 0.0019569274 -0.01031302 0.010926905 0.0050293547 0.0061030225 -0.0020731324 -0.0022462409 0.0006923165 -0.0077541703 0.008407093 0.003450708 -0.0032727346 -0.019885482 -0.0067097475 -4.4421584e-05 -0.0032902528 0.002071339 -0.004956801 -0.020324158 0.0066871983 0.0114714615 0.0057940907 -0.017125895 0.01480916 -0.005845628 -0.0026516702 0.0057620313 -0.0038105566 0.0038588443 -0.0044531045 0.0094821695 0.0036943506 -0.010562721 0.008015013 -0.0033735873 0.008068049 -0.00976135 0.018703187 -0.0021437963 -0.0048322454 -0.0046082106 0.018658165 0.009832406 0.0036808862 0.020053865 -0.0036500099 -0.002111454 -0.006990718 0.004344866 -0.002682682 0.0073090782 -0.004558271 0.00964565 -0.0007483136
进行 -0.0034425214 0.014716161 -0.0014919821 0.0057487492 0.010501925 -0.013546251 0.013023434 0.011690154 -0.0021545198 0.00080605986 3.7899597e-05 -0.021846157 -0.0008215396 0.008135068 -0.0034143412 -0.011577903 0.010030272 -0.013200554 -0.0068741464 -0.010734347 0.00094545796 0.011151381 0.0049831416 0.002549161 -0.0072228424 -0.0021646703 -0.020063214 -0.005720402 -0.0114906775 0.0012416586 0.016656984 -0.0069531556 -0.00056434126 -0.008717705 -0.011002642 0.003692958 -0.0012238157 0.0052644704 -0.0018627732 -0.02063884 -0.008341853 -0.009572008 -0.011953107 -0.003960759 -0.0003615894 0.00042862643 -0.012711788 -0.0031066036 0.0056991936 0.011274571 0.0020109362 -0.016059987 0.0027664916 -0.007167993 -0.0008632356 0.006609913 0.012608295 0.0017443665 -0.015411845 0.010292331 -0.006979267 -0.0052074287 0.0074900985 -0.003390647 -0.01783355 0.0049011647 -0.0034773648 0.010051473 -0.012642854 0.010678921 -0.0036823691 0.007992515 0.0143602155 -0.011176112 0.0031580506 -0.002444628 -0.007530208 -0.0034114213 -0.010966855 -0.0074148583 -0.009949564 -0.0015774341 -0.003192038 0.0148605555 0.005796111 -0.0067819757 -0.004094302 0.009793185 0.019775115 0.004013319 0.014953898 0.0045741876 0.0029034694 -0.008261127 0.01678778 0.012629635 0.00914883 -0.004305194 -0.0039009517 -0.0079663675
二叉 0.0036701204 0.007607927 -0.008962765 0.0072662067 -0.0046527325 -0.00544935 0.0118458625 0.011267048 -0.004963966 0.0012205363 -0.0077389954 -0.01245647 0.008756305 0.013095279 -0.0073897294 0.0031742381 0.013059304 -0.008823358 0.00084716757 -0.019944528 0.01552316 0.0016888725 0.009695098 0.00829873 -3.6025212e-05 -0.004384148 -0.0119591355 -0.003125889 -0.003371805 0.0071510756 0.017621629 0.005039545 0.015348065 -0.012916245 -0.009672826 0.012983416 0.0035505616 -0.004994277 -0.016183354 -0.017179893 -0.008231708 0.0032711725 0.0006147973 -0.0066475132 0.008597047 0.0015953624 -0.010013622 -0.009678252 0.0043040025 0.014498552 -0.0061337305 -0.0063922214 -0.008613529 -0.0018698326 -0.002337853 -0.00095747353 0.0007083332 0.0008877769 -0.018563863 0.010941259 0.0045656706 -0.00595031 0.0013384307 0.0023850417 -0.021100048 -0.00090347667 -0.0028741474 0.0032392223 -0.0015118829 0.019376555 -0.0026648487 -0.005466439 0.013512699 0.0018640393 0.008045917 -0.0029391432 -0.0010695348 0.00025785915 -0.016544413 0.0032652104 -0.0039026777 -0.006880242 -0.017124472 0.018201863 -0.0110621 -0.004228156 0.0063213147 0.009187621 0.0067082373 -0.0025497389 0.011035735 0.008412187 -0.00636625 -0.0040969937 0.007261255 0.001319635 -0.004478646 -0.017972568 0.012096836 0.0048247287
插入 -0.0098308185 -0.0010292483 -0.0012586821 -0.0015509077 0.011191152 -0.010374482 0.00063320925 0.015078663 -0.018707976 -0.0020784969 -0.009111514 -0.014554183 0.0045195506 0.012442131 0.0068025896 -0.011829878 0.010323472 -0.015881449 -0.008643903 -0.026874628 0.005490732 0.0029878656 0.0006572424 -3.7183272e-05 0.0052525387 0.009805594 -0.011836171 0.004046327 -0.004751613 0.0022458434 0.001853738 0.0073405937 -0.0032472939 -0.005720429 0.0036080144 0.009738153 0.0015037991 -0.011711116 -0.004738203 -0.0077827224 -0.0093728155 -0.010569509 0.005445158 0.0039661326 0.00577443 -0.0024294127 -0.015061285 0.005569725 0.0016558738 0.0011914169 0.0070137684 -0.0052927393 -0.008330903 0.0048966655 -0.008012523 -0.0015877368 0.011247861 0.0066608 -0.004144642 0.0049879844 0.00092909636 -0.0050498936 0.007979813 0.00868414 -0.014254675 0.00490324 0.0025556993 0.009078643 -0.019525042 0.019102138 -0.0046347203 0.012643088 0.001508193 -0.0085904915 0.0019687254 -0.0011220576 0.0046982174 0.0050853514 -0.0082979165 0.0041800085 -0.014041647 -0.0006867202 -0.017594133 0.01606195 -0.0049279714 0.010502538 -0.0027004257 0.017168356 0.014659322 0.0041898545 0.0130148595 0.011304547 0.00212209 0.009700987 0.016577212 0.012911301 0.008869604 -0.016494505 -0.0016219369 -0.0025596179
操作 -0.003561583 0.008474871 0.0014410741 0.009630113 -0.0029081125 -0.009600241 0.01172079 0.015335169 -0.0019689128 0.0012941535 -0.005068244 -0.01686408 0.002712978 -0.00573551 -0.0009910619 -0.012720342 0.0020783267 -0.012133478 0.0061732936 -0.018258331 0.015656773 -0.007111457 -0.0012303096 0.00042669935 -0.0061484985 0.0037174167 -0.01157508 -0.0042650546 -0.010354559 -0.0070484863 0.012451854 0.00092890725 0.010948696 -0.009618419 0.0004921438 -0.0011876802 0.007644397 0.0030936364 -0.013410813 -0.0022659425 -0.0056059356 -0.013885458 -0.00034946625 0.003977037 -0.004288514 -0.011147702 0.00543961 -0.0015525855 0.0033904559 0.0068137087 -0.00048113428 -0.0026739752 0.00033757443 0.008986125 -0.009969559 0.0055447486 0.0091018565 -0.0067208842 -0.018388024 0.0113562355 0.006832211 -0.002055625 0.008498036 0.00030077214 -0.01491203 0.0036660924 -0.00013491897 0.013103847 -0.0068084826 0.0014802795 -0.0046248683 -0.00045869185 0.012523056 -0.0035722307 0.013221329 0.0065591186 -0.0022245904 0.008209993 -0.0038720728 -0.0032945662 -0.009106129 -0.0026595225 -0.012259979 0.012811098 -0.01096876 -0.0048168027 0.0033562707 0.00760259 0.013805874 -0.0014525129 0.00942786 0.0047297464 0.0055373544 0.002428053 0.019133788 0.009186587 -0.0044510434 -0.0071854396 -0.0054661785 -0.008018074
值 -0.0065516266 -0.0031942863 0.009682413 0.0040969574 0.00030616735 -0.016551215 -0.0034498463 0.0043185074 0.002029627 -0.005588814 0.00037311815 -0.013868756 0.009613597 0.0077294293 0.0028914711 -0.00771688 0.0041517564 -0.0075991326 0.006095958 -0.0104852235 0.0073298034 0.0055622966 0.0072334693 -0.008312055 0.00597275 0.0036860218 -0.014425788 0.004694705 -0.0061981054 0.0115306815 0.0049043754 0.007731463 0.0076683573 -0.0072993883 -0.0071651475 0.019198531 0.0017536625 -0.009651494 -0.0075244377 -0.014073201 0.001480824 -0.0136940805 0.005743566 0.0023665116 0.012095083 0.0022610591 -0.008709973 0.0005052172 0.0024117995 -0.005487407 0.011597293 0.0048821755 0.007992082 -0.004832585 -0.013252032 0.008383346 -0.0046947063 0.0087836515 -0.0074273497 0.00867462 0.006591386 0.0028799837 0.0007005665 9.5397496e-05 -0.0005856338 -0.001948355 0.004022413 0.0046675256 -0.0044034277 0.017292606 -0.00910249 0.0063115517 0.0015446639 0.00034871654 0.014943513 0.008880419 -0.00293973 -0.0029460045 0.0008456799 0.0106420275 0.002431776 -0.0029311848 -0.009236889 0.003966478 -0.0065227044 0.0046578627 -0.0064420467 0.0014666044 0.016753187 0.011905586 0.018420875 0.004252037 -0.00879995 -0.0066019767 0.01170405 -0.0046167704 -0.0050411522 -0.0045600063 0.0004578376 -0.0120572895
排序 0.0020001896 -0.001733261 -0.0069354093 0.00035238886 0.002974569 -0.012549906 -0.00012155516 0.021800824 0.0018048284 -0.011594279 0.006073372 -0.0023169387 -0.008111878 0.0017886583 0.0065657613 0.0028597468 -0.0011049523 -0.0120687215 0.003579037 -0.024527377 0.00043315522 0.00027032697 0.009482768 -0.007112036 0.00097536726 0.0019145983 -0.006330659 0.0022540884 -0.0034963377 0.010819549 0.006804948 -0.007954411 0.013675297 -0.008397528 0.001779664 0.0059255366 -0.007764845 -0.010374701 -0.0037191727 -0.013298635 0.0015698174 -0.014868761 -0.0081060985 -0.0056335516 0.013497565 -0.010944644 0.0009196864 -0.0044595096 0.0034240081 0.014086332 -0.0003225936 -0.012475748 -0.0010536732 0.0070055313 0.0040033995 0.00020759864 0.0059584817 0.005524534 -0.016853822 0.00971304 -0.006462915 0.0046349457 0.007833944 0.003997965 -0.015914626 0.008232703 0.012626901 0.016636044 -0.01933084 0.016708309 -0.00013637633 0.0011766199 0.0160715 -0.0068726 0.0056275185 -0.0012423967 -0.0030062227 0.0004931453 -0.011359993 -0.0049402355 0.003164416 -0.005304114 -0.014523107 0.01889825 0.0076430645 0.005807011 0.00068060315 0.009234994 0.007760379 0.009403675 0.004781875 0.0030953505 0.004732022 -0.00084786117 0.012341348 0.00969279 0.013106125 -0.00541896 0.013665368 -0.008887356
可以 0.00085080066 0.002653629 -0.00375177 0.0033871795 -0.0027465804 -0.016009457 0.008022466 0.0219492 -0.013186407 -0.0124529805 -0.007017763 -0.0013230412 -0.010045386 0.013093322 0.0014430651 -0.0013228748 0.0006212302 -0.010347332 0.0017934478 -0.007587854 -0.00097401487 0.0005695537 0.004874304 0.003117642 0.003962085 -0.0013024647 -0.00073128036 -0.009064063 -0.006867601 0.012355493 0.011524044 -0.007936124 0.0028668863 -0.011495862 -0.005002432 0.01480719 -0.007455516 0.002248326 -0.0015352729 -0.01492529 -0.0096583655 -0.0077493535 -0.004610141 0.004832238 0.01291722 7.718749e-05 -0.0058057536 -0.00030903833 -0.004217022 0.0031803574 0.0018121705 0.004781905 -0.007641944 -0.008184992 -0.001894263 0.005971077 -0.0043453495 -0.005834222 -0.010854861 -0.00032426455 -0.009408438 -0.0017343046 -1.1741353e-05 0.006048268 -0.0091377795 0.006778314 0.005282721 0.0037568433 -0.005742 0.010805074 0.0011278024 0.0015446041 -0.0030660927 -0.0017079802 0.016131822 -0.00020453689 -0.0039517893 -0.0024922837 0.0013318474 -0.00010426984 0.00608951 -0.0077452795 0.0018887002 0.00022639561 0.007188999 0.0032393422 0.0027506866 0.00188198 0.01640091 0.008207077 0.004502262 -0.0070905597 0.006813875 -0.004488329 0.000535135 0.007798436 -0.002292633 -0.0139178205 0.013041993 -0.0045085284
或 -0.005484131 0.00260278 -0.0038870487 -0.002896307 -0.00398094 -0.015537677 -0.0027915265 0.023338966 0.00021037365 -0.006920192 -0.0013132402 -0.016802024 0.00707304 0.01174798 0.0026589385 -0.010674056 -0.00037588686 0.00039989123 -0.004291607 -0.010816621 0.015418449 0.006381791 -0.0021803884 0.004228931 -0.00570288 -0.004135657 -0.0010028083 -0.013058637 -0.006059748 0.001507958 -0.00238427 -0.0005011688 0.010368265 -0.008089456 -0.010485451 0.015146828 -0.0037415565 -0.0113645075 -0.007163564 -0.011215632 0.007453557 -0.004478104 0.0061089345 -0.009206729 0.007851556 0.0042231865 -0.003068972 -0.0061442084 0.00390713 0.0037860381 -0.0048365197 -0.011495615 -0.00044314377 -0.0028457495 0.005222608 0.0023758803 0.009215868 0.002480825 -0.0013534533 -0.0064455555 0.002532572 0.00058342965 0.005181859 -0.00079053437 -0.01676641 0.013907918 0.0021484734 0.008873703 -0.015297913 0.013734065 0.005386223 0.0013693834 0.012605183 -0.002891038 0.014146489 0.014820803 0.00092863786 -0.0016638904 -0.016746903 0.010520816 -0.005895585 0.0026974578 -0.0090082055 0.018227741 0.006320701 0.0029690997 0.0029947867 0.014056478 0.010463029 0.008764441 0.00979648 0.00016218523 0.00524942 -0.0023727547 0.007087228 0.0141551895 -0.0067736567 -0.009859699 0.0006187606 0.002869855
表 0.0045710634 -0.0007220069 0.006132139 0.0016836948 -0.00810839 -0.011466038 0.002807988 0.007356767 -0.0063059875 -0.008098495 0.002764794 0.0014544184 -0.0018096019 0.006231946 0.0006431215 -0.003933399 -0.004836552 -0.0028067164 0.0027606816 -0.004724596 0.011935913 0.0052467156 0.0072509395 -0.0087469565 -0.004299909 -0.004103864 -0.00022840337 0.004647099 -0.008526656 0.0038092197 0.010523374 0.0025728203 0.0046607074 -0.009230318 0.006971195 0.0007004983 -0.0061545563 -0.008526435 -0.013039919 -0.0131678665 -0.009418283 -0.0030902247 -0.0055694063 -0.0020361426 0.009459181 0.0017729336 -0.0015984942 -0.004142127 0.012447479 0.0044711917 0.007901553 0.00499005 -0.011523343 -0.010058815 0.006168114 0.0057898588 0.00067754433 0.0046167444 -0.012729558 -0.0042359876 -0.008290017 0.0092743 -3.6086018e-05 -0.008431536 -0.01474321 0.010740783 0.0019854999 -0.0002155544 -0.009183959 0.0072394516 -0.007351438 -0.00022569165 0.009380598 -0.0010148891 0.0018282424 0.0071178065 0.006527289 -0.009367738 -0.01361135 0.006894059 -0.0121973315 0.0008915998 -0.01538413 0.017008679 -0.006262635 -0.0059077265 -0.0012606563 0.00561604 0.01448165 0.01134385 0.008162474 0.004859038 0.00451144 0.0011248561 0.00268053 0.0038871337 0.0046383264 0.0030457296 -0.0008487957 -0.012298119
其 0.00075164693 0.017157797 -0.0066899485 0.0018185973 -0.0035158996 -0.0053373496 0.015549754 0.01565429 -0.0020623868 0.003139051 0.0002624679 -0.018560283 0.002617226 0.0023373186 -0.00018288106 0.0010158633 0.0015984591 0.004891602 -0.001830035 -0.015548739 0.0044874335 -0.006597539 -0.0062738815 0.003510838 -0.009753333 0.0056646033 -0.0065607238 -0.011269607 -0.008643195 -0.0025607336 -0.0015706584 0.0005394236 0.015568722 -0.009808274 -0.007919934 0.018676206 0.009172274 0.0064980453 -0.01860701 -0.007879378 -0.0070143826 0.0009274696 0.003917706 -0.0024618665 0.011106433 -0.009987565 -5.248565e-05 0.00095048983 0.00914602 0.011463918 0.0008056685 -0.0012805319 -0.007822638 -0.007651691 -0.0018218294 -0.005578135 0.003049669 0.0012529155 -0.0031068895 -0.0037815743 -0.0025504427 -0.0017409696 -0.0018178276 -0.0011361572 -0.007148105 0.0006954386 0.0038231432 0.016942846 -0.011151684 0.007958764 0.002438563 0.004088765 0.0066063195 0.006335443 0.015266747 0.008969243 0.0048351022 -0.002054482 3.77292e-05 0.005686706 -0.009419437 -0.0053392714 -0.008833401 0.0037642983 0.001200446 -0.007865382 -0.0016937816 0.012135127 0.012286204 0.005612859 0.0019178658 0.00575116 0.0055382308 0.0049288543 0.019068785 0.007908526 0.009270677 0.0016998365 0.002714322 -0.004184977
不 -0.0018537845 -0.00083843985 0.0060605 -0.0028966572 -0.001915447 -0.012350979 0.013139922 0.016597744 -0.0074392697 -0.0058662323 -0.005846029 -0.01038756 -0.0055912943 -0.00057640334 0.0020854655 0.00076812325 0.0045743915 0.00232218 -0.00069960766 -0.017439153 -0.0015917752 0.008014435 0.0102064675 -0.0072222967 0.0018396378 0.012306763 -0.014822106 -0.0068147862 -0.013685095 0.0066163708 0.0027333766 0.0024853027 0.014335372 -0.011194515 -0.012692185 0.0111212665 -0.008072747 -0.012293282 -0.016690098 -0.01182008 -0.00115121 -0.0048105223 -0.0031995487 0.009996828 0.012861835 -0.008565026 0.0048778625 -0.0121984165 0.001550045 0.007215908 0.0029714433 -0.008605542 -0.0010350534 0.00018945418 -0.013536225 -0.0013207335 -0.004724561 0.004014308 -0.010702663 -0.004609754 0.0059910547 0.0025579173 0.0054964437 0.004958054 -0.014732308 0.013151964 -0.0031727918 0.004059182 -0.016315995 0.011187769 -0.01192374 0.012066656 0.011963423 -0.010156083 0.012684573 0.011639381 -0.006150181 0.0048881294 -0.014997785 0.009760283 0.0011331675 0.00031210328 -0.016304718 0.009271213 -0.002447924 0.0022324861 0.008817809 0.005216393 -0.00052088924 -0.0065261996 0.008904469 0.0038722493 7.6911696e-05 -0.00079185737 0.018845504 0.005778871 0.009495313 -0.0026596982 -0.003981247 -0.0048942026
上 -0.012345137 0.00013791819 -0.0026239015 0.008749605 0.0005415511 -0.0020513178 0.0034129918 0.009780904 -0.0034840317 -0.0009931462 -0.004494834 -0.011924274 -0.006515739 0.0076878606 -0.005828603 -0.013214695 -0.006360592 0.0035766135 0.0025853338 -0.008280644 0.016470455 -0.005657201 0.007683477 0.0017465409 0.0031160992 -0.00092195865 0.0004536467 -0.010037599 0.0021141106 0.010452065 0.006424425 0.005928627 0.011771681 -0.0014499841 0.0043323925 0.012623414 -0.0017167856 0.0040918104 -0.0034809785 -0.015632866 0.0018511511 -0.0060687265 0.0028975895 -0.0045144395 0.00024296422 -0.0033202488 -0.00026352349 -0.00993968 0.010850352 0.0018025347 0.009116063 -0.0025324265 0.005007122 -0.0052987393 -0.00794067 0.007029876 -9.1909635e-05 0.0063304156 -0.016610857 0.0061389348 -0.00057297386 0.001715542 0.0056691407 -0.0025547268 -0.015506014 -0.0030919027 0.007960866 0.013553958 -0.015887419 0.020152315 -0.0011855904 -0.0022266384 0.0054687965 0.0010007286 -0.00044581256 0.007370552 0.007091623 0.006624136 -0.002562965 0.004355009 -0.0064617656 -0.005458969 0.0002901205 0.0033080312 -0.0035006695 -0.0020288758 0.0070167035 0.002491421 0.012275691 0.0044537014 0.0067399163 -0.0058173845 -0.008272664 0.004691014 0.0012204422 0.0118422685 0.00031694956 -0.016607033 -0.0013671054 0.00476699
图 -0.0057721403 0.013456598 -0.008489213 -0.0070711756 -0.0037475114 -0.009803403 -0.0012954833 0.005257041 -0.01583 -0.0041484996 0.003355491 -0.01846962 -0.005870875 0.0052023763 0.005167499 -0.012680063 0.010015428 -0.012900801 0.0030820377 -0.005887821 0.012597223 0.008444011 0.011217425 0.002001259 -0.01055203 0.0082064085 -0.016831638 -0.00947603 0.00059723674 -0.0041844477 0.0008015822 -0.0029776562 0.008920324 0.0025891033 -0.0020396244 0.014957211 -0.003322293 0.0016665536 -0.014854808 -0.014283343 -0.007726366 -0.004756488 0.0028512608 0.0065198336 -0.00083186885 -0.00018342359 0.004050705 -0.009003243 -0.0005306028 0.004608553 -0.0015369898 0.0030977349 0.006121434 0.008303903 0.0054512066 -0.0043562464 0.0024855835 -0.0074965484 -0.0149421375 -0.0056121903 0.0031669817 0.0027334709 -0.003845167 0.0071938233 -0.010687415 0.0056639053 0.001275621 0.00434313 -0.011853906 0.018339787 -0.00295366 -0.0025928633 0.011577674 -0.0021431001 0.004119353 0.0130515965 -0.002144477 0.0074939835 -0.012116208 -0.0068057906 -0.008071435 -0.0026587038 -0.008648407 0.009128935 0.0028951862 0.0070680887 -0.0020266739 0.011708166 0.007457348 0.0028814226 0.009656592 0.00013958453 -0.004833398 -0.0030318904 0.010786748 0.007660414 -0.0070354515 -0.0011427689 0.0020152414 -0.0061207036
遍历 -0.010763324 0.00504376 -0.0037752187 -0.0072209635 0.0012823149 -0.022669615 0.0026335814 0.0120220855 0.00058247655 -0.0063380934 -0.013146823 -0.0075017144 -0.008747376 0.0025687306 0.005504732 -0.012896981 -0.005386585 -0.013356212 0.005651108 -0.0109437425 0.01274028 0.004640761 0.008337049 -0.0055961525 0.00530551 0.0101168435 -0.0075780754 0.003430081 -0.015359916 0.0053775925 0.018208422 -4.78344e-05 -0.0002642683 -0.0062242215 -0.0072712353 0.010923625 -0.0020259535 0.0032027736 -0.010855496 -0.012182755 -0.0034202088 0.0009247061 -0.009491497 -0.007570141 0.0018092449 -0.0100423535 -0.010264181 -0.0040212795 0.006344027 0.008438882 0.009702528 -0.008637173 0.0001693187 -0.0011536356 0.0017429447 0.013022634 0.0019041592 0.0018428892 -0.020263178 -0.0003642591 -0.0073575135 0.0034161878 -0.0009852294 -0.004803022 -0.013508275 0.010074343 -0.0024812846 0.012512364 -0.007593442 0.018864226 -0.009691585 0.013108659 0.018296862 -0.0036185896 0.010117354 -0.002687619 -0.0031960516 -0.0001376364 -0.0064137564 0.0013114414 -0.013722061 0.006726244 -0.018084228 0.023073142 0.0029018691 -0.0050163106 0.0033908898 0.018875347 0.005513306 -0.0037509324 0.023913326 0.00512376 0.009775864 -0.008424388 0.013082413 0.015209053 0.0026395966 -0.011787722 -0.0020737967 -0.010178651
一种 -0.011518776 0.016667202 -0.0011429659 -0.005910491 0.0095657315 -0.015123861 0.0050419145 0.015170303 -0.005018946 -0.008716441 -0.0047591007 -0.013610218 0.008464053 0.010766411 0.002985761 -0.010462505 0.006126046 -0.0042714877 -0.007865446 -0.02237505 0.0043708743 0.004469816 -0.0045123855 -0.0063245613 0.00399768 -0.00093252707 -0.0013533791 -0.003572266 -0.011005255 -0.0013884798 0.007056208 0.005418125 -0.0007534645 -0.008299709 -0.010529776 0.017585866 -0.0024569603 0.0006340976 -0.010536192 -0.020942232 -0.0013943339 -0.0057886722 0.0014105422 -0.007395622 -0.002209267 -0.008919266 -0.0012099132 -0.007966832 0.003953838 0.00949561 0.008254943 -0.0032869137 -0.0050540036 -0.0005108264 -0.0106343925 -0.0022817831 0.011727144 -0.0044111195 -0.021010675 0.007388271 0.008060015 0.00269889 0.0056505813 -0.004300407 -0.016326446 -0.002731192 -0.0022836807 -0.0006780772 -0.016501952 0.02067797 0.0036392629 0.001192342 0.0070852228 0.0050194804 0.00818973 0.0008393947 0.0043412093 0.0018050778 -0.012489731 -0.0042567565 0.0056795315 0.008336336 -0.017183626 0.005899608 -0.00067530887 0.0024669135 -0.008474395 0.018430846 0.004232553 0.0070796995 0.021007216 0.0038088872 0.003849887 -0.0016219405 0.0019597928 0.006668575 0.002194205 -0.017589666 0.011064106 -0.010952065
平衡 4.634681e-05 0.0037029937 -0.008926937 -0.0071227564 0.008228425 -0.018398674 0.011875646 0.015679045 0.0012266889 0.0034707694 0.005513197 -0.0031861442 -0.008657797 -0.0054838443 -0.0033540588 -0.0058542592 0.008651053 -0.002186962 -0.0038394884 -0.012892162 0.0034256505 -0.0051507354 0.009044491 -0.011340848 -0.0030109915 -0.0022348876 -0.0023969049 -0.008951861 -0.0031111846 -0.0023261963 0.017445328 -0.0049705594 0.009498741 -0.00018670435 0.0053649046 0.005819333 -0.0043211826 -0.0108756535 -0.0029126427 -0.018958999 0.0045836815 -0.0076246085 0.004790324 -0.005041292 0.0054719895 -0.002575027 -0.013815277 0.0048070094 0.0013982077 0.012493975 0.0038241895 -0.0009915048 -7.320804e-05 0.0080349175 -0.013813153 0.013127203 0.0122282775 0.0015960903 -0.0077710827 0.007837034 0.0042616148 -0.00024382117 0.0061966917 8.49289e-05 -0.008027599 0.014752255 -0.0021084005 0.009516111 -0.020072302 0.011116187 -0.014982139 0.0067792567 0.006067897 -0.0037232898 0.0142934965 -0.0023431126 0.0026452553 -0.0022613266 -0.013335468 -0.0066118753 -0.012506732 0.009280589 -0.016564127 0.017554203 -0.0061431285 0.00045677338 0.0036735013 0.0012787594 0.0044609155 -0.0051442864 0.0027887488 -0.0017241457 -0.0030283509 0.0020647498 0.012160873 -0.0009856126 0.00017226269 -0.011175174 -0.0020206394 -0.009996223
链式 -0.006582905 -0.0022347155 -0.007765132 -0.0059652897 0.0046617775 -0.017295633 0.0009955008 0.018977769 0.001514542 -0.009639654 0.0036743043 -0.016225645 -0.0007382395 0.009472545 -0.001349914 0.00587323 0.00238334 0.00054235087 0.0058653327 -0.021561906 -0.00078844023 -0.005801334 0.0016781115 -0.008043691 -0.002861687 -0.005954457 -0.0070220707 -0.0035625203 0.0018591363 -0.006150684 0.0025434021 0.0065090344 0.014145818 -0.0046013924 -0.002271019 0.0018807409 0.000717394 -0.011272872 -0.014594685 -0.008632382 -0.0001726148 0.0007112515 -0.011620723 0.0026667935 0.005169474 -0.0070882933 -0.0033126362 0.0030090262 -0.0040510753 0.0050450508 0.006793552 -0.002385058 0.001071927 0.007469099 0.003033503 0.0065361164 0.010669893 -0.007827741 -0.0013335298 0.006920568 -0.0064237127 -0.0021485768 0.009286334 0.0054568923 -0.019548718 0.005664753 0.0041571604 0.007453894 -0.0009721694 0.0022751004 0.005577554 -0.0075127156 0.011869387 0.0069613666 0.0018327459 -0.00510256 0.00731185 -0.009207238 -0.015067949 7.613414e-05 -0.010056731 0.0092910705 0.0011428946 0.010364017 0.0064626103 0.011035791 0.005124186 0.011945656 0.013079932 0.008517346 0.01379945 0.008486632 -0.0072236992 0.010183144 0.01688569 0.0145682255 -0.0065280884 -0.009444755 0.0027876857 0.001569306
根 -0.01193949 0.0058822115 0.0067225 0.010897993 -0.0015944199 -0.007589919 0.011237047 0.010548744 -0.0038252212 -0.01236891 -0.002688239 -0.003824739 0.004107875 -0.006877124 -0.003528041 -0.00056460395 0.0038449052 -0.009120335 0.00462457 -0.009464435 -0.0024127846 0.011608291 -0.004716866 -0.004270243 0.007429747 0.0031709909 -0.013153801 -0.002568424 -0.008312205 -0.003938438 -0.0023390476 0.005865249 -0.005144174 0.0015035138 -0.008460672 0.013662083 -0.0044977902 -0.008677891 -7.129059e-05 -0.018998038 0.0014038185 -0.0070644724 -0.008460363 -0.006818119 0.010745426 -0.0064042634 0.0012185734 -0.012233462 0.00474337 0.00239517 -0.003228584 -0.007249212 -0.010052516 -0.004293476 -0.0063912445 0.0010305115 -0.0024840652 -0.008992529 -0.0032243305 0.0015403051 0.0064835097 0.0052987463 0.010925859 -0.0041649565 -0.018476095 0.005882285 -0.004735196 0.012562237 0.00026035716 0.010011258 0.003554659 0.011267949 0.009955185 0.0027794114 0.014760856 0.005346867 -0.0070100124 -0.008444817 -0.008170573 5.840945e-05 0.005687046 -0.00897625 -0.009244984 0.0185142 -0.0032328845 -0.00798571 0.0021095588 0.0013003915 0.002039091 -0.004572238 0.009253409 0.0095758345 0.0037635376 0.0091436235 0.018027592 0.009519068 -0.003209521 0.0007575834 -0.0066127605 -0.007379072
该 0.0042822068 0.01448788 -0.0048731267 -0.006275177 0.00965593 -0.013934027 0.0011086115 0.021148998 -0.0012761006 0.0005762051 -0.005019384 -0.00019271145 0.008391015 0.010286513 0.010981566 -0.009548916 0.0035340695 -0.00581657 0.005185311 -0.003832412 0.011280521 0.005938619 0.009614676 0.00507304 -0.0031149243 -0.00616839 -0.010099743 0.005391799 -0.009967607 0.004077677 0.011133902 -0.0066188974 0.013207664 -0.0012836675 -0.0007740312 0.017700471 0.0013538479 -0.0019356819 -0.016896524 -0.0015655718 -0.009732591 0.0029910856 0.0030816186 0.0008886779 -0.0038643875 0.007013918 -0.00508498 0.0025139374 -0.00026875202 -0.0008433963 0.0034319328 -0.013241765 -0.008251634 -0.010599096 0.00091534364 0.0043013194 0.0018432937 0.0052149724 -0.011765831 -0.0045473906 0.0030054545 -0.003644327 0.0034969044 0.00926397 -0.01143436 0.011670553 0.009129317 0.0035779537 -0.01422508 0.018938879 -0.0026781016 0.0022506588 0.0071313567 -0.007888859 0.010026001 0.0022269436 0.005501142 -0.0038937633 -0.007978647 0.0045962106 -0.010544469 -0.0021109055 -0.015829751 0.011810297 -7.1419877e-06 0.003985689 0.0012685257 0.0081540495 0.010529859 0.001071304 0.015757507 -0.00085305364 -0.00535537 -0.004272899 0.00021283148 -0.0025663453 0.004902074 -0.0026379223 -0.002419982 -0.012395393
过程 -0.012521439 0.014385383 -0.008212848 0.00800011 0.008436066 -0.009260275 -1.860309e-05 0.023518333 -0.015496628 0.0043139965 -0.010199823 -0.015938055 0.00489607 0.004115318 0.007888455 -0.009766781 0.009120377 -0.017043993 0.0043858266 -0.022417182 0.0036279205 0.0024428002 0.0036829612 -0.0024341182 -0.0067531136 -0.0055105817 -0.020487128 -0.012667166 -0.015705576 0.00021969296 0.018640235 -0.00088343746 -0.0010396559 -0.010148142 -0.00083869696 0.011670483 -0.0019393696 -0.008806921 -0.005438755 -0.025688428 -0.00754958 -0.00032040302 -0.010205647 0.0041159703 0.0066860365 0.006905913 -0.0011002624 -0.0029257075 0.006548785 0.00913656 0.0068022213 -0.010045001 0.0016566807 0.004808715 0.0025011518 0.0042010476 0.0027210147 0.0070744865 -0.024161538 0.003464634 -0.0073756496 0.008127799 -0.0046047284 0.0029190134 -0.006176164 0.0056715584 -0.0015189155 0.0026368566 -0.010035042 0.010099121 -0.0008110447 0.002978795 0.017170712 -0.004351175 0.0031741874 0.0017081962 0.002304922 -0.0045963493 -0.0043532746 -0.0024054407 -0.0107670035 0.0017986373 -0.01582381 0.0068680844 -0.008206305 -9.567895e-05 0.0008969326 0.015928911 0.018953472 0.0101911025 0.021124963 0.003945625 -0.0059619285 0.010720083 0.014456038 0.012834073 0.002825944 -0.0037837978 0.010779642 -0.0117492
位置 -0.0062945923 0.0050357506 0.0024067876 -0.0077938926 0.0058244616 -0.00490916 0.0034978522 0.0078914985 -0.012826992 0.0051891957 -0.0118831 -0.0146585265 0.0042459285 -0.0057109776 -0.0018041987 -0.0049721254 0.00043614133 -0.010944205 0.0034611125 -0.0102204485 0.008367609 0.00040922052 0.009407405 -0.010879994 0.0033941069 -0.0032535414 -0.0050856033 -0.010014246 -0.0064330054 -0.004106837 0.0017458784 0.010361772 0.0063959067 -0.00052389735 -0.008954513 0.013011527 -0.008146649 -0.005182668 -0.012553606 -0.015412715 0.0021485894 -0.007608798 0.0011442531 0.004548079 -0.0030081754 -0.0034132628 -0.0059983437 -0.01247658 -0.0077580777 0.004791523 0.0071330555 -0.0033301234 -0.006418712 0.0030807382 -0.0015484788 -0.006966479 0.00973652 0.008089236 -0.015634876 0.0012610446 0.0060359933 -0.0010219255 0.001944781 -0.004443365 -0.0020473206 0.011206514 0.006164635 0.0009901614 -0.008994707 0.0041454835 -0.013241215 0.010115093 0.0042793336 -0.0030940115 0.012220444 -0.0051257284 0.0076223016 -0.0077271406 -0.011017554 0.0057898522 -0.006320347 -0.0033009439 -0.011844516 0.004391647 -0.0044454485 -0.0031616054 0.009592206 0.016041322 0.0061101527 0.001679375 0.002367138 0.009946095 -0.0050082696 0.006872096 0.017136436 0.010132394 0.0011581145 0.0006331693 0.0096961735 -0.0061040036
集合 -0.0029487284 0.011969806 0.0063918633 0.0014001181 0.0037420224 -0.015305065 -0.005086545 0.006760219 -0.010959626 -0.0021518674 -0.0071175927 -0.008245925 0.0071264184 0.012675552 0.009641599 -0.00096028915 -0.00042211622 -0.0014837576 -0.003654847 -0.020990402 0.011858559 -0.0069360156 0.0065389453 -0.0051817056 -0.008083163 0.0008108722 -0.013550464 0.005446929 -0.011334052 -0.006703397 0.011222668 0.0048539173 0.008963742 0.00038224683 -0.006601382 0.0026754234 0.0018134668 0.00560239 -0.012153237 -0.0116592115 0.0019478524 0.002134527 -0.008127403 -0.004016988 0.0008442637 -9.334496e-05 0.0020140966 0.0028619114 -0.0062807077 0.01140876 0.00023406032 -0.0068793483 -0.010217375 -0.0065525044 0.0058981497 0.005967476 -0.0055946154 0.0030557967 -0.015507564 -0.006659465 0.0038690332 0.0036078885 0.00398343 0.00850045 -0.002094327 -0.0008920894 0.0071733263 0.0084126275 -0.0051759365 0.01711812 -0.010936595 -0.0004770516 0.0062530823 0.004084856 0.0044566146 0.012358814 -0.003531533 -0.00887199 -0.013038006 -0.0036800934 0.006600163 -0.0048746737 -0.0113516245 0.016899979 -0.009171338 0.0033252172 0.005831469 -0.000987802 0.006930182 -0.0002460307 0.0138901 -0.0027010296 -0.006772374 0.010953531 0.0034647908 0.01225522 -0.006474252 0.0016011236 -0.0006652739 -0.010345391
表中 -0.0047750077 0.0030133377 -0.0014677037 0.00046287992 -0.0054135434 -0.011744125 0.0008590259 0.018882178 0.00045837328 -0.00316348 -0.0080314465 -0.0017161955 -0.009006935 0.0043041287 0.005442299 -0.0050395024 -0.0025111365 -0.012062098 -0.009422987 -0.004192529 0.009034328 0.0011683821 0.012553285 -0.009759089 -0.0021362044 0.0012891502 -0.014880153 -0.012349709 0.0032713742 -0.0013204191 -0.0026733088 0.008751345 -0.0026554414 -0.0052766018 -0.00072792114 0.004392287 -0.00828366 -0.0064770267 -0.015595657 -0.007889495 -0.0048515573 -0.0041210903 0.0013308872 -0.0017814873 0.012163346 0.0053189467 -0.003739573 -0.0035020127 0.002830403 0.010468134 0.011653355 -0.0058279727 -0.0033314228 -0.0035552871 -0.0032750694 -0.003963816 0.000374612 -0.008842514 -0.0077841706 0.0034700998 0.0037226805 -0.0010321413 0.008260094 -0.0077828597 0.0015566841 0.0045577455 0.0066286055 0.010341189 -0.0070352806 0.010970758 -0.0024217186 -0.0076121087 0.0016271212 -0.004789685 -0.0043873806 0.007789688 0.005861315 -0.001854035 0.0017090958 -0.0005864181 -0.003255491 0.0061202524 -0.014442414 0.0010867605 0.0055063902 -0.0058368524 0.008799546 0.011989585 -0.0015753403 0.010537644 0.01453872 -0.004777207 -0.009066254 -0.008087436 0.011608753 0.010633133 -0.00022956928 -0.0037679027 -0.005738649 -0.007388437
矩阵 0.0014302761 -0.004053063 -0.008720999 0.0029590423 -0.0078368485 -0.01564437 0.009516912 0.019679757 -0.01289873 0.0055620368 0.0063915523 -0.0026194812 -0.004405773 0.012614793 -0.0067873187 -0.00719426 0.004159588 -0.011332455 -0.011208554 -0.008407804 0.0134613365 -0.0038386737 -0.0018223397 0.0032138075 -0.0016116903 -0.0071183527 -3.8983286e-05 -0.0062342617 -0.0008357038 0.0057974504 0.014253001 0.009603398 0.011909832 -0.010595487 -0.0015264178 0.0069774576 0.00074368 0.006489239 -0.0016663733 -0.018564943 0.009789689 -0.005311433 -0.0010671412 0.0060729287 -0.0030698306 -0.0023876189 -0.0021801498 0.004693249 0.0066813333 0.0017936913 -0.0058234665 -0.0075980932 0.0077011506 -0.010769506 0.0064284913 0.0026114127 0.0010712441 0.009906903 0.001078583 0.01122113 0.009272085 -0.008393007 0.010500813 -0.009351761 -0.01706297 -0.0046302117 0.0066277385 0.013875318 -0.014332878 0.005875955 -0.0066715726 -0.0026661782 0.004153584 0.0024393667 0.008894107 0.0011339367 -0.0026186437 -0.0018652081 -0.009286843 0.0046799076 0.006863405 0.008782065 -0.0140888365 0.0014946924 -0.010789731 -0.0048992755 0.0039100195 0.00078714127 0.0092431 0.010893091 0.012128188 0.0034612678 0.009390912 0.007385136 0.006648689 -0.0015935581 0.0014111918 0.0017440729 0.010976925 -0.006744632
将 0.0068118297 0.007736281 0.0056155366 -0.0040459028 0.005439035 -0.007915875 -0.0055961185 0.016306542 -0.01418464 -0.009056486 -0.0002658764 0.0020659128 -0.0024261116 0.009673244 0.006311768 0.001532672 -0.0041422006 0.001628897 -0.009271513 -0.015356171 0.010072675 -0.0067699803 0.008233872 -0.004462015 -0.0026260165 -0.0052808 -0.012747987 -0.0062163784 0.0048202686 0.0076725744 -0.0045799566 -0.006194202 0.0076760673 -0.0107961595 0.004170054 0.013489414 -0.009444735 0.0062164753 0.0014978825 -0.010851794 0.0019643297 -0.0100499485 0.0046196803 0.0084724985 0.007316756 -0.0107100215 0.0018385295 -0.005811596 -0.00033588978 0.009917539 0.004233567 0.00075932965 -0.0075269807 0.0044817533 -0.007089039 0.0022916642 0.008691089 0.0039898 -0.00023115544 -0.0017681892 0.003827541 0.0092078755 -0.00099499 0.005461968 -0.01780609 0.012936293 0.007971622 0.011316688 -0.0026689635 0.012880786 -0.0072578127 -0.0042151865 0.002800685 -0.00080468395 0.0021814746 -0.0046069226 -0.0053402022 0.008536376 0.0035234583 0.0065775155 -0.0068822443 0.0012184499 -0.014399248 0.014741524 -0.0012730337 0.00848824 -0.0053950176 0.0033446613 0.00949267 0.0051418478 0.001308202 -0.005685281 0.001933949 -0.008256247 0.013819192 0.010093287 -0.0016152905 -0.010751182 -0.0058911396 -0.0039475793
由 0.0029803105 0.006592703 -0.0075435815 0.010831473 -0.007144625 -0.005416876 0.0118865445 0.01567742 -0.015593096 0.0028933052 -0.011735163 -0.014650386 0.009285441 -0.0047868663 -0.005688173 -0.009003226 0.006411972 -0.0028244613 -0.0069886823 -0.017985757 0.01501146 0.011535442 0.013222128 -0.00026383228 0.0009149957 0.0036323892 -0.0068180007 0.00076324865 -0.0027816643 0.0034758996 0.0033684666 -0.0058721295 0.013248967 -0.009082215 -0.00040689635 0.008781233 -0.003927585 -0.00831101 -0.004645317 -0.018054865 -0.0076788194 -0.008299487 0.0028953888 0.0070657963 0.0026633285 0.0051750895 -0.011905158 -0.007862301 -0.0049888403 -0.0010210472 0.010433166 -0.014051974 -0.010339129 -0.010718279 0.0048229983 0.0010052017 0.0038675072 -0.0059289117 -0.012467967 0.0032511377 -0.0024861323 -0.005108252 -0.003116666 0.001906598 -0.020507349 0.006698411 0.0031807728 0.016061075 -0.009717251 0.017110774 -0.01194537 -0.004970315 0.012126145 -0.0020156463 0.0018097267 0.0025411115 0.010341552 -0.009155155 -0.011252594 0.0016326656 -0.0039599473 0.01042594 -0.009720904 0.003357652 -0.009797702 -0.008452567 -0.007885679 0.0021968083 0.00276148 0.0009515293 0.009831465 -0.0024654618 0.002233841 0.005319546 0.019570349 0.0011599556 0.008218976 0.0006198573 -0.0002910743 -0.01054125
删除 -0.0059859287 -0.0022886747 0.0071367323 0.010765599 0.009317668 -0.015605678 0.008642119 0.014533986 0.0012277936 -0.010549318 -0.0024446375 -0.013019971 -0.0088272905 0.0048164986 0.011095104 0.0040842462 -0.0051989993 -0.0008790405 -0.004959837 0.00027808195 -0.004615826 0.011165078 -0.0042365184 -0.008125624 -0.00062981935 0.0009682318 -0.0141673125 -0.0032633494 -0.0035887137 -0.004251842 0.010025063 0.003653808 0.01137776 0.005693677 -0.008977683 0.010953364 0.005565347 0.0034167012 -7.308497e-05 -0.01264908 0.004228088 -0.0021332945 -0.0011038992 -0.0063028396 0.0046650837 0.0036707441 -0.0122470865 0.006413084 0.004882638 0.00311619 -0.001321288 -0.002849811 0.0048444886 0.004271071 -0.008989374 0.0099632265 0.001231372 -0.008072399 0.0020791986 0.0068569444 0.0037873315 0.00954253 -0.005718968 -0.006478812 -0.008891909 -0.0005335773 0.0018329597 0.004257736 -0.014539211 0.008907714 -0.0005723386 0.0010218935 0.00894188 -0.00022588886 0.010190276 0.00096158433 0.009542518 -0.0016318577 -0.0017641814 -0.0033052142 0.003757803 0.0035119609 -0.0044468474 0.015616275 -0.009337932 0.010401907 0.0010703743 0.0029487165 0.0014260734 -0.0073992745 0.0045233825 0.004328575 0.006492008 0.009652346 -0.0019191795 0.012897567 -0.0069659413 -0.000661475 0.010285952 -0.004398379
个 -0.011446558 -0.0031016718 0.0016007087 0.0006541019 -0.008190701 -0.0059625222 0.0070956885 0.01640391 -0.0014914256 0.0004181338 -0.013397568 -0.001999837 0.004321255 -0.0048701265 -0.00071189547 -0.0028017394 0.001963393 -0.0049526393 -0.007067567 -0.0125587825 0.01002542 0.0006653263 0.003969477 0.0015371748 -0.006848229 -0.005670833 0.0022449521 -0.013346813 -0.006556089 0.0015694167 -0.0023550107 0.0025373609 0.012129042 -0.004094877 0.0054438333 0.008361504 -0.0062962053 -0.0043334267 -0.007389857 -0.004135226 0.007357245 0.0015781719 -0.007667105 -0.0063537145 0.009989392 0.00060548267 0.0019085467 -0.0024972514 0.0103777675 -0.005063851 0.012692294 -0.012474164 -0.0033385474 0.005805156 -0.013141744 0.0070835906 -0.0049972762 -0.0066813068 -0.0065447995 0.004437695 -0.0031072872 0.010085693 -0.0048364233 0.00013198346 -0.00062745507 0.006509105 -0.0026711538 0.010178485 -0.012878468 0.009602738 -0.0010360543 0.01026386 0.012973992 -0.00730361 0.015292916 -0.0012250814 0.008777248 -0.0076078144 -0.014423916 -0.00057008234 -0.011070854 -0.0031558913 -0.006771984 0.008889294 -0.011908855 -0.0055373395 -0.0074455915 0.0072298474 0.012315745 0.0017910815 0.01902594 -0.0017486536 0.008030916 0.0069473237 0.017354768 0.0051351953 0.0024277596 -0.0039167395 -0.0064909225 0.006619751
每个 -0.0053917253 0.01282407 0.002607512 0.004627522 0.00016323657 -0.018381344 0.0059585082 0.014499557 -0.015436529 -0.006562539 -0.0056045703 -0.012682485 0.003589731 0.0046540294 0.0060474556 -0.009348762 -0.004498911 0.0012575042 0.005298082 -0.006288709 0.009813277 -0.0055231797 0.010777776 -0.007711455 -0.010163701 0.010778549 -0.009119319 -0.01251901 -0.006697609 0.008770482 0.0022066059 0.0054425956 0.0043077315 0.0017961637 -0.001674484 -0.0018025659 -0.0038260252 0.0068137827 -0.0043196245 -0.015561756 0.007084024 0.0028292227 0.0057916925 0.0011964905 -0.006205047 -0.0052762367 0.0019376855 -0.009005072 0.012259863 -0.0059465384 -0.0053842263 -0.00960874 0.004688174 -0.008407911 0.0051124315 -0.0070790835 0.0056046164 0.003445466 -0.00788288 0.012413509 0.005084558 0.0023940436 0.006960418 0.0061150757 -0.0057360083 0.013691424 0.002740435 -0.0024012048 -0.011868556 0.0065992856 -0.011062016 0.0008462072 0.012995504 -0.007211528 0.010277483 0.00815879 0.0006151632 0.0010997397 -0.00021284248 -0.006527388 0.0011249478 0.009594185 -0.0090783015 0.0004146707 -0.010908703 -0.0078116856 0.0040693944 0.011590998 0.013992351 9.16486e-05 0.0091228485 0.005208014 -0.010033653 -0.008478447 0.013141203 -0.0036469891 -0.00091226946 -0.009866142 0.008556407 -0.00576611
之间 0.00683461 0.005734076 -0.0046264697 -0.0021568255 0.0025347122 -0.013658445 0.011731929 0.020126028 -0.0009601075 -0.009794149 -0.009125946 -0.007193085 -0.0012403576 -0.0028171954 0.009431472 0.0034010562 -0.0020445888 -0.0012435041 0.0041104206 -0.008729113 0.013356704 0.00018919134 -0.004141933 -0.0016706145 -0.010705167 0.011527259 -0.015120805 -0.0045264675 -0.006788897 0.005590159 0.009984078 -0.007795233 -0.00037135804 -0.0019005411 0.0012769124 0.012635413 -0.0014401174 -0.0030013297 -0.013790354 -0.004483966 -0.0075760055 -0.0009326018 -0.005058745 -0.006952698 0.01017768 -0.0019201082 -0.012935574 -0.012015725 0.0027001344 -0.004574744 0.00634656 -0.00025015566 0.0018993585 -0.0065180566 0.004709371 -0.006564333 0.009811201 -0.0005866934 -0.009513648 0.006741189 -0.0027444772 -0.0025388573 -0.00011135126 -0.0063632187 -0.008547738 -0.0012139935 0.008690553 -0.0036215805 -0.011547537 -0.0012198584 -0.013433858 0.0011906062 -0.0032891203 -0.007987322 0.007828525 0.0025128054 0.004181918 0.008582723 -0.015555461 0.006747709 -0.010777133 0.007129019 0.0017577478 0.016865324 -0.009493399 0.0045208503 -0.0075265383 0.005109717 0.001269837 -0.0068225446 0.0127789695 0.006497286 -0.004030973 -0.0069611296 0.011486823 0.000606144 -0.0068494678 -0.009585393 0.00065770216 0.006673798
也 -0.010335245 0.013713232 0.006539393 -0.0031951198 -0.0005237015 -0.01228071 0.007984202 0.012605667 -0.009099344 -0.012235133 0.0027935654 -0.018379303 -0.008986165 0.004470082 0.004586688 -0.0035567621 0.002723442 -0.0017245368 0.00068910373 -0.0057262406 0.0022791377 -0.0054830923 -0.004938985 0.0069025652 -0.0012159081 -0.0036050589 -0.001353841 0.004921203 0.003438984 -0.0038960767 0.0006478117 -0.0014800105 -0.002303376 0.002345117 0.0025038258 0.0025444957 0.00703507 -0.0103010675 -0.00077626767 -0.015747266 0.002064586 -0.008427801 0.0015011141 0.008771287 0.002614093 -0.0069398633 -0.012057505 0.00055938936 0.0067144344 0.011047789 -0.0012297647 -0.014625096 0.0052841287 -0.005611008 0.00049490447 0.01159634 -0.0012463249 0.0017410875 -0.012984196 -0.0039814743 -0.005813097 0.0019926718 -0.0046273004 -0.0025963099 -0.012339453 0.0117641 0.005982078 0.012703105 -0.0045959344 0.006070823 -0.0096301595 0.012208782 0.012888526 -0.011442233 0.011348423 0.013036877 0.010448878 -0.007905377 -0.009215135 0.0015167244 -0.00040795884 -0.0011487599 -0.011518412 0.016021589 0.005211373 0.0009146328 -0.005768923 0.003312401 0.0025963592 0.006350721 0.009977834 -5.2812706e-05 -0.009063039 -0.0006210276 0.016072426 0.011626197 0.007247335 -0.009097599 0.0124087185 -0.0021967827
n -0.002580428 0.012532192 -0.0063798227 0.008357399 0.011327776 -0.0062585967 0.008512299 0.01718258 -0.008204399 -0.011171786 -0.0018261779 -0.0075233225 -0.0074931746 0.0052636885 0.007196042 -0.010887969 0.004997944 0.003281375 -0.010218323 -0.009476699 -0.0031179287 -0.00680383 0.01019097 -0.008487095 -0.004192821 -0.0059020203 -0.015674615 -0.010947419 -0.0039928183 0.004889083 -0.0019055522 -0.0076078973 0.0013046764 -0.004685708 -0.009302339 0.004275629 0.0036399297 0.00018731797 -0.00041345306 -0.0066916193 -0.00095561263 -0.0022392813 0.007510453 0.0032778252 0.0054048616 -0.0006917304 -0.013117115 0.0026648252 0.0079341475 0.0045108953 0.01247759 -0.010439992 0.0017741468 -0.008772088 -0.013621693 0.0053130942 0.007637228 0.0065741916 -0.01813753 0.0072316527 0.0025758585 0.0064395275 0.0019036796 0.005168372 -0.0024783153 -0.0035142251 -0.0054106056 0.013897889 -0.00915878 -0.0002379921 -0.008784034 0.0034651933 0.0141655225 -0.0041951295 0.0049592205 -0.00262069 -0.00679591 0.0019578007 -0.006981321 -0.007159141 -0.0023409047 -0.008644971 -0.009039978 0.013539098 -0.00066859456 0.009227826 0.006930207 0.0063349777 0.012982617 0.0082743745 0.018055929 0.011741339 0.0047186464 0.0055291564 0.016695457 0.0035864043 -0.0033917734 0.0027563956 0.004330256 -0.0076729013
串 -0.004059444 -0.00015216711 0.009691436 0.005036937 0.0052496153 -0.0020163225 0.01265621 0.006612234 -0.01174436 -0.0063444017 -0.0070131337 -0.017056022 -0.0009789595 -0.005474232 0.011031993 -0.0062087006 -0.004223737 -0.011674758 -0.0048365416 -0.021160414 0.005778743 0.007087962 -2.6234382e-05 0.006799466 -0.004344991 -0.005163907 -0.010051321 -0.006148228 -0.010887638 -0.0075466745 0.0011287786 -0.00081307435 0.009139637 -0.0096981665 -0.0074835722 0.008797224 -0.0017450509 0.00077954406 -0.008357023 -0.004852203 0.008049111 -0.012573875 0.0022770239 0.0067645563 0.0028676367 0.004929191 -0.008784278 -0.00727356 -0.005514577 0.013424597 -0.0069793626 -0.0068261526 -0.001807342 -0.0055843364 0.005704943 -0.0040831873 -0.005723174 0.009208786 -0.016291067 0.012279504 -0.0039239945 0.00779962 0.0022384115 -0.0040621376 -0.016217083 -0.0022126592 0.011045315 0.012382071 -0.007537797 0.01532436 -8.8679924e-05 0.0058472683 0.008116871 -0.012181277 0.014278271 -0.0042586094 -0.0016741463 0.0014236883 -0.0008653916 -0.00895694 -0.00074745936 0.0068110297 -0.014889907 0.018082982 -0.0065022386 0.010869783 -0.006522738 0.013150189 0.016377056 -0.0071653817 0.008454705 -0.005843821 0.008348589 0.01028476 0.002225891 0.0055077625 0.00016093516 -0.013281679 0.003601935 -0.01227935
对 -0.00039052454 -0.002649397 0.006227687 0.009127595 -0.0013430008 -0.012352663 -0.005631524 0.015811408 -0.0022913832 0.006246133 0.00023550574 -0.010090319 0.0032253857 0.0112539 0.01085685 0.004705625 -0.0066093584 -0.011355655 0.0060858335 -0.018672 0.008030648 0.009592538 -0.00073710736 0.0059419787 -0.01072877 0.00839047 -0.0007469422 0.0003003646 -0.011961675 0.011658102 0.0133195985 -0.0012107664 0.008255643 0.0040275096 -0.0042971605 0.013018517 -0.004256326 -0.0036213102 -0.007161268 -0.013551703 -0.0008457394 -0.01189974 0.0020424833 0.009984328 0.007885349 0.004804749 -0.007916606 0.0024110663 -0.004417073 -0.0013187896 0.012429852 0.0023221395 -0.006154267 -0.006859092 0.0038951153 0.0055746785 0.008757062 -0.0065872045 -0.008743374 0.0015259158 -0.00024504118 0.004287694 -0.0045433342 0.004103803 -0.011102953 0.012590068 0.002645442 0.015004159 -0.007953265 0.013110062 -0.011539912 -0.006979606 0.0046619764 -0.004464161 0.014993957 0.008464886 -0.004562301 0.0075525963 -0.0052603576 -0.009133323 0.0030809054 -0.0017060265 -0.015048123 0.016733013 0.005664741 0.009799077 0.0005372322 0.0140983965 0.011835644 -0.0052191815 0.017142981 -0.0014267515 -0.009855915 0.009429061 0.0026078415 0.012684767 -0.0057014152 0.0041226367 -0.0031390658 0.0018645123
栈 0.0065761195 0.00947034 -0.0016767925 -0.003507597 -0.00873878 -0.0039573833 0.0111238565 0.006463623 0.0009527398 0.0042041834 -0.0120387245 -0.0048252856 -0.007239978 -0.0018418293 0.0024888422 -0.009860591 -0.002043226 -0.011253072 -0.007832011 -0.017827982 0.014589053 0.010087353 0.0024607738 -0.0036084866 0.003872171 0.003303698 -0.015485945 -0.009964599 -0.0026051777 0.010351558 0.008344076 0.01071051 0.010218779 -0.0017349236 0.00632082 0.01632405 0.0080020055 0.00637676 -0.015740614 -0.005370347 -0.008040827 -0.011347921 -0.010007646 0.0037114169 0.0032458326 -0.008142323 0.0023554994 0.0052692485 0.006598314 0.011519151 -0.0016256159 -0.009876025 0.0022496998 -0.0037242188 -0.010817371 0.0062430413 -0.00092815195 -0.005190791 -0.0053518633 0.00904502 0.0067546302 0.0020153294 0.011296211 0.0024516045 -0.0014081444 0.0030106928 0.0062779486 0.01206373 -0.017114041 0.014038235 -0.0024029794 0.008152212 0.00330665 -0.004912985 -0.0009830521 0.0012012261 -0.0013549639 -0.0051387264 -0.0046847644 0.008593264 0.0024341112 -0.0075416677 -0.013120662 0.0052455147 0.0025248497 -0.008365437 0.0063437563 0.009530021 0.0036196646 0.0114977285 0.015775679 0.0026184197 0.0047886 -0.008527198 -0.0012734601 0.0014048966 0.011627989 -0.0018342873 0.008126196 -0.009036183
子树 0.00040973985 0.006817149 -0.0003376425 -0.0016716257 0.006535553 -0.019521084 0.010423061 0.019422786 -0.009431368 -0.0072044106 -0.011736938 -0.015203436 -0.005626568 0.0066569922 -0.0027906753 -0.005015281 -0.006427225 -0.0080552725 -0.0022340734 -0.022051293 0.009360772 0.011927084 0.0074291457 0.00051902345 -0.008171532 0.0011760312 -0.0054895375 -0.002210791 0.0044956254 0.0023243977 0.013146068 0.0062723896 0.0075099096 0.004432754 -0.008088237 0.005183481 0.0070250873 0.0058007175 -0.0037117181 -0.015751913 0.0076175267 -0.0027361906 -0.0020465543 0.010255115 0.00853555 0.0021529186 -0.003950766 -0.012037347 -0.0007242476 0.007003226 -0.0027213616 0.0022338715 0.0056134257 -0.010153307 -0.009583975 -0.002450619 0.0019571665 -0.0010447509 -0.011631464 0.0010159342 0.0038144328 0.012339335 -0.0022516337 -0.008955795 -0.0066043627 -0.0013272525 0.011844236 0.010073701 -0.016789494 0.0023656576 -0.01395666 0.005028219 0.009079498 -0.000106397216 0.0062871473 0.005666976 0.0045772074 -0.0014404829 -0.015817687 -0.00010527455 0.00023331749 -0.0019256619 -0.0090814 0.0072631496 0.005642548 -0.0018161718 0.009728363 0.003870938 -0.0019803178 -0.004749093 0.0053468263 0.0037435489 0.0051910966 0.0032009124 0.01919746 0.006412955 0.009004434 -0.006262967 0.0011392328 0.003798387
顺序存储 -0.0015232537 0.013579569 -0.0077798786 -0.0071754823 0.0007721123 -0.010545781 0.0021060212 0.010786593 -0.010017613 -0.010949401 0.0053523364 -0.010809171 -0.0034117645 0.00095847214 0.00023523724 -0.0125103 0.00067610206 -0.0053245155 0.0077187824 -0.019867707 0.00018060234 -0.00074593176 0.0053990986 -0.00688183 -0.007772712 -0.0062267696 -0.0015292065 -0.011717296 -0.0073941117 0.0029412531 0.0063326657 -0.009063182 0.013104566 -0.0044770213 -0.002302068 -0.0016263362 -0.00837922 0.0011199741 -0.0024948933 -0.0060340306 0.0057824505 -0.011341219 -0.0028352055 -0.0018872598 0.0015448096 0.0027833101 -0.0019127005 -0.010147436 0.0055030617 0.010610271 -0.0033201305 -0.00050106854 -0.005908578 0.00834287 0.00075829966 0.0047028586 0.001512752 -0.009249858 0.00075497385 0.0006626545 0.0070565003 0.005398473 -0.005712448 -0.0012340609 -0.0062022996 0.0014133361 0.014195102 0.0008656901 -0.014590732 0.012405059 -0.007261292 -0.0049470835 0.0071505653 0.0029669113 -0.0008050423 -0.00052714435 -0.00585113 0.0012079683 -0.010659233 0.009216395 -0.0023875535 0.0023251176 -0.009533096 0.016009437 -0.0023872661 -0.007175603 -0.0074081896 0.006917992 0.014863974 0.005196946 0.002777621 -0.0049128714 -0.010017193 0.005007214 -0.0017914076 0.0077596437 0.003867745 -0.00576218 -0.0071376767 0.0037511962
向 -0.0037120203 -0.0040602996 -0.0071486738 0.010298116 0.003414722 -0.018113881 0.0043304646 0.018359248 -0.015485758 -0.010278321 -0.004369339 -0.018607534 0.000120315875 0.00499079 0.010390355 -0.0025466774 0.0031024364 0.00043344896 -0.005692759 -0.0058438163 0.005910666 0.0012578069 -0.007259932 -0.0003730579 0.0038056097 0.003918669 -0.015964357 -0.007198805 -0.010815329 0.009020665 -0.0006247727 0.0061821546 -0.0005056727 -0.009293286 -0.01088228 0.012523945 -0.009129803 -0.008386268 -0.0140277995 -0.015654352 -0.004057869 -0.0034461261 0.0046141483 0.00035404516 -0.0020809546 -0.00017685915 0.0020942257 -0.008080683 -0.00264493 0.0099371625 0.00940612 -0.012628201 0.0068907933 -0.010772562 -0.01149733 -0.002426579 0.004483464 0.0002397515 -0.005524595 0.010398093 0.0044874083 -0.0010401347 -0.003955932 -0.008490948 -0.010587922 0.014787608 -0.0033689274 0.010544174 -0.0035537966 0.0049823336 -0.011880266 -0.0031511192 0.0008574089 -0.00966851 0.012099906 -0.0033211967 -0.0017705378 0.004552429 -0.006706502 -0.0073173796 -0.007859457 0.0047617243 -0.004316973 0.007422061 -0.0024433152 0.0039689196 0.0014806105 0.0049692425 0.013599074 -0.0058588516 0.016058616 -0.00768653 -0.0023751932 0.007971366 0.005814399 0.012092579 0.008249098 -0.01396646 0.0028732873 -0.00779482
定义 -0.011861774 0.005346439 0.0067651593 0.010719785 -0.0037616934 -0.01266198 -0.0013280062 0.014527803 -0.0036293343 -0.012838954 -0.0012415288 -0.017358948 5.1054114e-05 0.008233404 -0.0033254956 -0.0032210608 0.0003092002 -0.013080614 -0.0037906102 -0.0087080095 -0.0030283858 -0.004034381 0.0026720995 0.006734462 -0.0013733682 0.012037809 -0.015619862 0.005369915 -0.009227062 -0.0034195846 -0.0018206168 0.0024701029 0.0017005116 0.0049868375 -0.003673221 0.011271391 0.0058341986 -0.0117099425 -0.009109361 -0.01597466 -0.008929129 -0.0017346904 0.00048657582 -0.0017841648 0.0021372593 -0.008831943 -0.0071672746 -0.0013676375 0.010339837 0.011506348 -0.0007480808 -0.0010295259 -0.0043371916 -0.0056030755 -0.007876194 -0.0029836448 0.0063264044 -0.007641438 -0.016817573 -0.0017422214 0.007798188 0.004118611 0.0083137965 0.0076264828 -0.01630269 0.00031654252 0.012398126 0.011899046 -0.0037254842 0.019027518 0.0042674523 -0.00029437683 0.007124843 0.002901366 0.015149083 0.014827483 -0.007205489 -0.004899688 -0.0019646646 0.0014940504 -0.0028566257 0.0079906285 -0.0006653137 0.0023016392 -0.0044973753 -0.007443726 0.0073577682 0.01022732 0.005527271 0.0040945965 0.017467111 0.010650716 0.006197343 0.0042557907 0.011074746 0.013531302 0.0042798817 -0.0058799074 -0.0062247864 -0.0001299054
折半 -0.01308713 0.013665463 -0.005058645 0.00042197126 0.0022425714 -0.012642004 -0.0040024626 0.018195743 -0.013448551 -0.0119858 -9.941139e-05 -0.010266995 0.0065400093 -0.0038214035 0.0027875723 -0.00449706 0.008425693 -0.015026058 0.0046983245 -0.023429768 -0.0012577099 0.002180929 0.0010181185 -0.005156572 -0.009147817 0.0069484194 -0.017849755 -0.0027154684 -0.00056320825 0.0026002133 0.0054112407 0.0076244622 -0.0053650117 -0.011798337 0.0012993246 0.018395942 -0.007911072 -0.0117577845 -0.008678013 -0.021074207 0.0016858692 0.0042695315 -0.00844309 -0.00554937 0.01327688 -0.0028072575 -0.007382972 -0.006475913 -0.0063664024 5.2840187e-05 -0.00074586907 -0.0045973053 -0.0010312825 0.006657405 0.0022350706 0.0018826723 -0.006992852 0.0026300992 -0.016781503 0.011698092 0.003006287 0.0015395263 0.009344394 -0.004160531 -0.013776696 0.004970816 0.0133318985 0.013514837 -0.007415593 0.014348916 -0.0077304477 0.012210816 -0.0011271539 -0.0058402065 0.0010207962 0.014239009 -0.0022106469 -0.0020689657 -0.00027836324 -0.00888254 -0.0064079254 0.0034228293 -0.013221047 0.019108256 -0.00075275026 -0.0038372232 0.0053356863 0.016510831 0.008853986 0.009375487 0.0035667566 -0.0011903959 0.009815605 0.006427389 0.01220701 0.0016426496 0.0071755317 -0.004093317 0.012001933 -0.0031335368
有序 0.0052116727 -0.00044756604 -0.0071490924 -3.0302053e-05 0.004106607 -0.010485758 0.010085983 0.0030684718 -0.014574905 0.004947815 0.0031200163 -0.011344874 -0.0043335664 -0.0007020883 0.0017271864 0.0063089672 0.003038158 -0.005828533 -0.0046777637 -0.013741995 -0.004099111 0.0082009025 -0.0061422144 -0.003947319 -0.010049993 0.011410642 -0.0008729505 -0.003404533 8.02415e-05 6.189939e-05 0.014728477 -0.00337277 0.008432516 -0.0061205523 0.0071313367 0.017097855 0.0060491175 -0.0030198388 -0.007988438 -0.018061932 0.009473562 -0.012964636 -0.008134477 0.006217641 0.0013228019 0.0060479385 -0.011027261 0.0062895436 0.0044184634 -0.004936733 0.006365533 -0.009102002 0.004851301 0.005849855 -0.012339977 0.009130235 0.0074929222 0.0067407554 -0.015336177 -0.0043301196 -0.009065486 0.006972051 -0.0016438839 0.0045560063 -0.0035498387 0.012419394 0.006588148 0.0047126445 -0.0057128295 0.011674384 -0.012332302 -0.0039687054 0.0039135204 0.0026155692 0.0048384015 -0.0054465286 0.00023326353 0.00749349 0.0007143593 0.0038406295 -0.007420503 -0.0036428303 -0.007921195 0.0024156854 -0.01005982 0.0008727367 0.001963838 0.011421879 0.010254208 0.010344641 0.0012206264 0.011240711 -0.0034656902 0.0016175878 0.0038998039 0.00013514757 0.0007828291 -0.013011385 0.0119420905 0.002671112
孩子 -0.005720214 0.007297756 0.0085498765 -0.0042067245 0.005259813 -0.0081084175 0.007640331 0.009668953 -0.015601594 0.0031358178 -0.004571405 -0.016032515 0.00018597217 -0.0036025885 0.009272299 -0.009767211 0.00060202315 -0.0041893977 -0.005138545 -0.015560778 0.012574624 0.0033795426 -0.0070301304 -0.0013802794 -0.012009318 -0.0014630466 -0.0019707507 0.00047926564 -0.010275438 0.0042357035 0.011179532 -0.0067227897 0.00094979216 -0.004823775 -0.0112571465 0.010088316 0.006596837 -0.00015669322 -0.0037981106 -0.010458614 -0.0006659828 -0.011241084 -0.0022971476 0.0076907286 0.006387177 -0.0010606449 0.0043909973 0.00047891808 -0.005139685 0.011530999 0.012320436 -0.013426335 0.005771101 -0.008283278 -0.003950228 0.008040724 -0.003368331 -0.007872298 -0.015335051 -0.0074567436 -0.0069534574 0.011699976 0.00549663 -0.009718421 -0.000552032 0.011607093 0.0124039855 0.015754122 -0.016359143 0.006603182 -0.0016768463 0.0046834233 0.010203118 -0.010424848 0.010219031 0.01438224 -0.007818904 0.0077784704 -0.0028685436 -0.003317362 -0.0044056093 -0.007886223 -0.013922219 0.014558783 -0.0051098852 0.01141916 -0.008553619 -0.00041816002 0.013633666 0.0099010635 0.012184132 0.009184443 0.006356538 -0.0047814706 0.017031826 -0.00190215 -0.00036195674 -0.011436799 0.00886616 -0.0068079005
称 -0.00018405406 0.004252175 -0.0007606514 -0.004178769 -0.004389417 -0.012815239 0.0051220213 0.013527134 -0.009251817 -0.0010028085 -0.009100076 0.0020328187 -0.0010274433 -0.003929531 -0.00011143009 0.004871268 0.0008220219 -0.008811782 -0.009628681 -0.017927408 0.002481027 0.009605878 -0.0044873874 0.0004972811 -0.0031187031 0.006165516 -0.015034442 0.0048136213 -0.0069490494 0.008183875 -0.004000896 0.0054530157 -0.003909103 -0.005532683 -0.004377524 0.0044143307 -0.0007670574 -0.0025801817 -0.002040476 -0.012355451 -0.004178314 -0.010866541 0.006916752 0.0057464833 0.012635005 0.0036713365 -0.007997738 0.0052387193 -0.0046002115 0.0070360717 -0.00071526377 -0.0043348595 0.0023843586 -0.003646017 -0.008303498 0.001134117 0.0030619658 0.006497525 -0.014501322 0.007368419 -0.0040028566 -0.005985836 -0.0033374606 0.0015248675 -0.00014104311 0.012604095 0.0135835055 0.013167491 -0.010326369 0.006540068 0.004520305 0.008575469 0.011305372 0.0043851733 0.006929344 0.006929114 -0.007145077 0.008101862 0.0031259025 -0.0066598486 -0.0017317099 0.009588085 -0.0025136333 0.015790671 0.005948338 -0.00053332647 0.0090784645 0.0130388485 0.0054080053 0.0018863864 0.018680196 0.008059846 -0.006900821 -0.0027573188 0.0054074056 0.007799833 0.0033522649 -0.014459174 0.0051954975 0.0072630076
A -0.0024332232 0.012541797 0.0025503284 0.0102654705 0.010928768 -0.009556241 0.0035892609 0.021061296 -0.016092826 0.00456204 -0.008649774 -0.00088043814 -0.01030655 0.0022853739 0.01127035 -0.009211648 0.0012986555 -0.00079627096 0.007925016 -0.018174432 0.0004951308 0.012464349 -0.0052410285 -0.00046538116 0.0021816264 -0.0053306385 -0.015615262 -0.014250711 -0.0057071936 0.0094695315 -0.00037916796 -0.0026385456 0.013887393 -0.008200702 -0.00059210614 0.015224175 -0.0037907478 -0.009212485 -0.0007296832 -0.016784014 0.009192457 -0.009256088 0.0007709473 0.0069217915 0.0058878176 0.002253642 -0.0109273065 0.0046278657 0.0017811155 0.00074690056 0.008815104 0.004188185 -0.007833823 -0.00012582402 -0.0006243469 0.0012956664 0.0040292107 0.0093708765 -0.004682621 -0.002884273 -0.0029809389 0.0121204695 0.0026981041 -0.010370002 -0.013229957 -0.00040213 0.0070275743 0.009913226 -0.015786162 0.007991838 0.0032903627 0.008092638 0.009982205 -0.0009970433 0.016039694 0.000544724 0.007631478 -0.0010041606 -0.017285775 -0.008900206 -0.0060312864 0.008703905 -0.007205955 0.0029463319 -0.001013278 -0.0021762722 -0.003429512 0.017536845 0.015608102 0.0028664474 0.01498258 0.0037887774 -0.010240242 0.0044996175 0.019845678 0.010972094 0.006417999 -0.011998561 0.0065325852 -0.011246373
编码 0.000764946 0.008203753 0.00025273574 0.0012356095 0.0039260937 -0.0068677496 0.0062747686 0.021420095 -0.0022189566 -0.0017082348 -0.0063019674 -0.0139412675 -0.010428653 -0.0006276952 0.005995282 0.0045877383 0.002320402 -0.009175304 0.0024389504 -0.016497975 0.0043991655 0.010547751 0.011182452 -0.0011401161 -0.008657963 0.005689872 0.0028721576 0.0058606355 -0.0062244968 0.010362311 0.015067161 -0.009337973 0.014132597 -0.00217165 -0.008290903 0.011615351 0.0091876155 -0.010243158 0.00034107003 -0.016676245 -0.007888034 0.00097297644 -0.006743458 0.0058290893 0.0115338005 0.008493487 0.0025247766 -0.011706656 0.006086475 -0.0052782246 0.0025721595 0.0056227935 -0.006699107 0.0032949892 -0.009860382 -0.0049998746 0.0104717435 0.003626444 -0.0006362905 0.0058623077 0.00041773575 0.0064624944 -0.0061482573 0.0062446767 -0.0139523465 0.009497564 -0.0014391935 0.0077485433 -0.0036760983 0.00654066 -0.012601191 -0.0040048966 -0.0043855617 0.0077189766 0.0009341762 0.003389194 -0.008123613 -0.004753769 -0.01155986 0.0034882457 0.0032016411 0.004122728 0.003947191 0.010924989 0.008424531 0.008941687 0.003082559 0.009301139 -0.0005036108 -0.0009591122 0.014136801 -0.005979757 0.0025795142 -0.0067706364 0.018951055 0.004712898 0.0033951825 -0.01068346 0.009038634 -0.009938194
两种 -0.0112873595 0.012504656 -0.0030386827 0.00079391705 0.006523053 -0.004943179 0.010881407 0.019492052 -0.00018404599 -0.011931375 0.0017805751 0.0011944938 -0.0046404717 0.004183978 -0.0017128299 -0.0069220713 0.010978334 -0.004765771 0.0023821942 -0.018024784 0.0111733135 -0.0018989705 -0.0020951093 0.0011437964 0.0072258133 -0.0041388194 -0.0038437105 -0.0043353294 -0.011477574 -0.001474413 -0.0025764129 0.0063865813 0.0014571011 -0.00796372 -0.0017471737 0.012993747 0.009373493 -0.012727127 -0.0071908752 -0.011412375 -0.0029607504 -0.0050819237 0.006233889 -0.0009604092 0.013100232 -0.0013758668 -0.0045544384 0.0042014504 0.009488802 0.004787481 0.0025397174 0.0021948246 -0.005522302 0.0039436785 -0.003795678 -0.0031865123 0.009082122 -0.0040162615 -0.006532699 -0.0042096716 0.0024690286 0.007741514 0.0076839235 -0.0086328415 -0.015276171 0.011680758 0.0076175295 0.007608813 -0.014056527 0.007854688 -0.013493876 0.003518723 0.00086558104 -0.0017028842 0.010014118 0.006913819 -0.005993416 0.0008300521 -0.01313446 -0.003168231 -0.0012703153 0.008408844 -0.013110017 0.011433583 0.006785152 0.011003703 0.006627167 -0.00033247817 0.011328021 0.0111130765 0.013282625 0.0048089214 -0.001736966 0.0044953567 0.013083319 0.013908461 -0.0013155148 -0.014826863 0.009693569 -0.008818456
它 -0.0037754986 0.0065252837 -0.0008068367 -0.002492232 0.0019984422 -0.017982723 0.0050709723 0.0069659767 -0.010981182 0.0013308024 -0.0018056051 -0.003551685 0.0006728532 -0.0068362374 0.011670597 -0.006726736 -0.00016937287 0.0033816022 -0.0010343933 -0.008166407 0.007343707 0.0038589388 0.009456847 0.008342623 -0.0030519222 -0.001350028 -0.0017431421 -0.011266809 0.0050183493 0.0049295397 0.010860027 0.003121062 0.0023769038 -0.0012210008 -0.0075484384 0.016521715 0.0048954594 0.0010986844 -0.011110447 -0.018130515 0.007775769 -0.0012456703 -0.0058433465 -0.007765549 -0.0008110853 -0.00024835014 -0.012049768 -0.0026718806 0.0048329 -0.006427228 0.0022639204 -0.009937489 -0.004844482 -0.0025956251 -0.013458266 -0.000916629 -0.0051145647 -0.0073714154 -0.006075581 0.004571624 0.009371673 0.010910957 -0.004174669 -0.009637449 -0.00029116857 0.009762306 0.010717641 0.0028021703 -0.012494442 0.003597627 -0.01213727 0.008254242 0.0012742528 0.006645788 -0.0006875823 0.013691514 -0.0035501614 0.008899308 -0.011159933 -0.006935208 0.005184187 -0.00952133 -0.014527994 0.012846346 -0.011094895 0.006424678 0.0038560492 -0.0006419234 0.009862014 0.0030468118 0.016807094 0.0048106187 -0.005248103 -0.0015199786 0.014844126 -0.002244098 0.0115603795 -0.008549392 -0.0017941302 -0.006629598
用 4.527946e-05 -0.0050053988 0.0035390554 -0.0027439746 0.010816839 -0.012749103 -0.004375523 0.013959557 0.004288626 0.00015132652 -0.0049504554 -0.0030388352 -0.009333178 -0.0017088244 -0.003156697 -0.0007743151 -0.004433482 -0.010923634 -0.0077284747 -0.004797288 0.00728248 0.010320045 0.004469888 0.0043589137 0.0021523442 0.0064533865 -0.010931546 -0.0011972152 -0.003031089 0.007665289 -0.0023237912 -0.00030624642 0.00763085 -0.0070361695 -0.011088332 0.012350195 -0.0007141959 -0.00205909 -0.011680056 0.00025125308 0.0006478841 -0.002012767 -0.001534057 0.0014907436 0.008451081 -0.010907273 -0.00046585503 -0.0079922145 0.011433399 0.0079676425 -0.003032612 -0.0046380465 -0.006859824 0.007960275 0.006205132 0.004584067 0.011934136 -0.004811563 -0.0042463536 -0.0032156182 -0.009044502 -0.0024874653 0.00072115264 -0.0062218825 -0.012194894 0.004379659 0.0035638965 -0.0030837692 0.00055882265 0.009076211 -0.0129026035 0.0005782114 -0.0031342898 0.0054304376 0.0036366151 0.011564386 0.0062211044 -0.0040083253 -0.014384823 -0.005647291 0.006174412 -0.00087222375 -0.005610671 0.007465682 -0.009848865 0.0051120115 -0.00834183 0.015304613 -0.0020061843 0.009885907 0.0054511437 -0.00018267987 -0.0022863206 0.0020291447 0.00981325 0.005672177 0.0016245904 0.0029715004 -0.0039965296 -0.010101378
给定 -0.011479587 0.0133376615 -0.0015443509 -0.002942365 0.006558287 -0.018313928 0.008006117 0.023668358 0.00033731083 -0.0061927414 -0.001341867 -0.004321193 0.009370208 0.00065669743 0.0032601855 -0.008367626 -0.00094865327 -0.0036271377 0.0006637874 -0.02004474 0.010760464 -0.003301214 -0.0015246305 -0.010369734 0.0040330417 0.0067125224 -0.010617547 0.0045938315 -0.0029075174 -0.0071302555 -0.0016726683 -0.003909248 -0.0026436083 0.0046440824 0.0016897809 0.011787207 -0.0009376847 -0.010151012 -0.001928986 -0.016972193 -0.0027595903 -0.011678099 -0.004245038 -0.008397311 0.0075334134 -0.009605479 0.0033180064 -0.0110290125 -0.0033398438 0.00446421 -0.0049431566 0.00047645438 -0.0058697015 -0.00039952758 0.0032409686 0.006581924 0.0026233916 0.007692638 -0.010252854 0.008157886 0.005954359 -0.005645526 0.00524167 -0.010228191 -0.011794577 0.014044836 0.0026375214 0.002384689 -0.0062300907 0.018053466 0.0019390814 -0.0043102982 0.013387635 0.0052733934 0.0010932534 0.003745633 0.00040693764 -0.009074137 -0.009728999 0.010506028 -0.0061493833 -0.007421867 -0.012000886 0.00030625303 -0.00018820533 0.0076825577 0.00051922986 0.004883432 0.018213084 -0.0074659144 0.0053516645 -0.007613854 0.009707262 -0.0011286291 0.0046548587 -0.0029023248 0.011053156 -0.009549995 -0.0026881613 0.0006125884
邻接 -0.010181065 0.01422507 0.0069841417 -0.0027041272 -0.002008861 -0.006587999 -0.005549822 0.015252321 -0.00073561433 0.0035280618 -0.012024211 -0.0075530135 -0.006845991 0.008643235 0.0111797135 -0.0039717183 -0.006323663 0.0010762109 -0.0012836375 -0.008520608 -0.0015045403 0.00067323574 -0.00051376614 0.006777252 -0.010245537 -0.0019840205 -0.0077479896 -0.0057444824 0.0020390889 0.002378609 0.0025325608 -0.008566466 -0.0053537567 -0.00036975986 -0.0035247845 -0.0021957606 0.0069809905 0.005034901 0.00069708517 -0.012196721 -0.00019931768 0.004041421 -0.008360109 -0.005776421 -0.0054897913 0.0028040514 -0.012645873 -0.0006756252 0.010648474 0.0053107743 -0.0068794806 0.0042617037 0.0045876596 -0.009191773 0.0026049654 0.01162552 0.0085490635 -0.0044508283 -0.0011769653 -0.002598424 -0.008002757 0.005841735 -0.0029750725 -0.002378391 -0.013804628 -0.0033098846 0.0020115762 0.006693071 -0.0055411197 0.015246825 -0.0001282237 -0.008080536 -0.004242256 -0.0042600865 0.0024271496 -0.0027110584 0.009944874 0.0042908373 -0.013203797 0.0062867063 -0.004409329 -0.0065931957 -0.0056643263 0.015260812 -0.0067286454 -0.002568316 -0.0023124283 0.011440737 0.011878827 -0.005695012 -0.0010337463 0.0012694901 0.0028536362 0.003893148 0.011038484 0.004125637 0.00064194045 -0.0015253136 0.002187168 0.003219968
